<?xml version="1.0"?>
<opencv_storage>
<cascade>
  <stageType>BOOST</stageType>
  <featureType>HAAR</featureType>
  <height>24</height>
  <width>24</width>
  <stageParams>
    <boostType>GAB</boostType>
    <minHitRate>9.9500000476837158e-01</minHitRate>
    <maxFalseAlarm>5.0000000000000000e-01</maxFalseAlarm>
    <weightTrimRate>9.4999999999999996e-01</weightTrimRate>
    <maxDepth>1</maxDepth>
    <maxWeakCount>100</maxWeakCount></stageParams>
  <featureParams>
    <maxCatCount>0</maxCatCount>
    <featSize>1</featSize>
    <mode>BASIC</mode></featureParams>
  <stageNum>15</stageNum>
  <stages>
    <!-- stage 0 -->
    <_>
      <maxWeakCount>5</maxWeakCount>
      <stageThreshold>-1.7133748531341553e+00</stageThreshold>
      <weakClassifiers>
        <_>
          <internalNodes>
            0 -1 86 4.1515012271702290e-03</internalNodes>
          <leafValues>
            -8.5572195053100586e-01 8.7005883455276489e-01</leafValues></_>
        <_>
          <internalNodes>
            0 -1 103 4.3312786146998405e-03</internalNodes>
          <leafValues>
            -7.6295632123947144e-01 7.2796696424484253e-01</leafValues></_>
        <_>
          <internalNodes>
            0 -1 71 1.4025044627487659e-02</internalNodes>
          <leafValues>
            -5.4505056142807007e-01 6.5629255771636963e-01</leafValues></_>
        <_>
          <internalNodes>
            0 -1 105 1.4618765562772751e-03</internalNodes>
          <leafValues>
            -5.2621287107467651e-01 3.6989825963973999e-01</leafValues></_>
        <_>
          <internalNodes>
            0 -1 96 -3.8869295269250870e-02</internalNodes>
          <leafValues>
            6.1860758066177368e-01 -2.2477625310420990e-01</leafValues></_></weakClassifiers></_>
    <!-- stage 1 -->
    <_>
      <maxWeakCount>5</maxWeakCount>
      <stageThreshold>-1.1659077405929565e+00</stageThreshold>
      <weakClassifiers>
        <_>
          <internalNodes>
            0 -1 218 1.6524260863661766e-03</internalNodes>
          <leafValues>
            -7.1889972686767578e-01 7.8959643840789795e-01</leafValues></_>
        <_>
          <internalNodes>
            0 -1 79 1.7126228194683790e-03</internalNodes>
          <leafValues>
            -6.1329388618469238e-01 6.4346599578857422e-01</leafValues></_>
        <_>
          <internalNodes>
            0 -1 98 2.9055062681436539e-02</internalNodes>
          <leafValues>
            -4.9640169739723206e-01 6.5012031793594360e-01</leafValues></_>
        <_>
          <internalNodes>
            0 -1 108 3.1050625257194042e-03</internalNodes>
          <leafValues>
            -6.5147984027862549e-01 4.3156701326370239e-01</leafValues></_>
        <_>
          <internalNodes>
            0 -1 116 4.0110587724484503e-04</internalNodes>
          <leafValues>
            -7.3201280832290649e-01 2.3112052679061890e-01</leafValues></_></weakClassifiers></_>
    <!-- stage 2 -->
    <_>
      <maxWeakCount>9</maxWeakCount>
      <stageThreshold>-1.5344840288162231e+00</stageThreshold>
      <weakClassifiers>
        <_>
          <internalNodes>
            0 -1 216 8.0394983524456620e-04</internalNodes>
          <leafValues>
            -7.0636880397796631e-01 6.5725845098495483e-01</leafValues></_>
        <_>
          <internalNodes>
            0 -1 71 1.7305029556155205e-02</internalNodes>
          <leafValues>
            -6.0664135217666626e-01 6.2042939662933350e-01</leafValues></_>
        <_>
          <internalNodes>
            0 -1 107 1.6144467517733574e-03</internalNodes>
          <leafValues>
            -7.4750661849975586e-01 4.1701462864875793e-01</leafValues></_>
        <_>
          <internalNodes>
            0 -1 60 5.0751492381095886e-03</internalNodes>
          <leafValues>
            -7.2130316495895386e-01 3.5351827740669250e-01</leafValues></_>
        <_>
          <internalNodes>
            0 -1 96 -4.1857503354549408e-02</internalNodes>
          <leafValues>
            5.5021846294403076e-01 -3.5109147429466248e-01</leafValues></_>
        <_>
          <internalNodes>
            0 -1 160 -1.0108372662216425e-03</internalNodes>
          <leafValues>
            2.8536972403526306e-01 -6.1059492826461792e-01</leafValues></_>
        <_>
          <internalNodes>
            0 -1 84 1.4139551203697920e-03</internalNodes>
          <leafValues>
            -7.6683664321899414e-01 1.9114060699939728e-01</leafValues></_>
        <_>
          <internalNodes>
            0 -1 29 1.8961399793624878e-01</internalNodes>
          <leafValues>
            -2.3971045017242432e-01 6.1697828769683838e-01</leafValues></_>
        <_>
          <internalNodes>
            0 -1 244 -2.5077749160118401e-04</internalNodes>
          <leafValues>
            -5.6475305557250977e-01 1.9710624217987061e-01</leafValues></_></weakClassifiers></_>
    <!-- stage 3 -->
    <_>
      <maxWeakCount>10</maxWeakCount>
      <stageThreshold>-1.5367461442947388e+00</stageThreshold>
      <weakClassifiers>
        <_>
          <internalNodes>
            0 -1 78 -5.9472844004631042e-03</internalNodes>
          <leafValues>
            6.7132186889648438e-01 -5.3380978107452393e-01</leafValues></_>
        <_>
          <internalNodes>
            0 -1 108 5.9158215299248695e-03</internalNodes>
          <leafValues>
            -6.5464365482330322e-01 5.0141620635986328e-01</leafValues></_>
        <_>
          <internalNodes>
            0 -1 97 2.6976963505148888e-02</internalNodes>
          <leafValues>
            -4.6081489324569702e-01 5.6475901603698730e-01</leafValues></_>
        <_>
          <internalNodes>
            0 -1 199 5.2477465942502022e-03</internalNodes>
          <leafValues>
            -7.1728479862213135e-01 3.3807846903800964e-01</leafValues></_>
        <_>
          <internalNodes>
            0 -1 104 1.0179412784054875e-03</internalNodes>
          <leafValues>
            -7.7954852581024170e-01 2.0208123326301575e-01</leafValues></_>
        <_>
          <internalNodes>
            0 -1 137 -1.3796102721244097e-03</internalNodes>
          <leafValues>
            2.9882410168647766e-01 -4.5915919542312622e-01</leafValues></_>
        <_>
          <internalNodes>
            0 -1 193 -1.1212346144020557e-03</internalNodes>
          <leafValues>
            3.4677642583847046e-01 -3.9856493473052979e-01</leafValues></_>
        <_>
          <internalNodes>
            0 -1 242 5.2651076111942530e-04</internalNodes>
          <leafValues>
            2.0576632022857666e-01 -6.1061513423919678e-01</leafValues></_>
        <_>
          <internalNodes>
            0 -1 242 -1.9919122860301286e-04</internalNodes>
          <leafValues>
            -6.4849442243576050e-01 2.1525117754936218e-01</leafValues></_>
        <_>
          <internalNodes>
            0 -1 126 -5.7605090551078320e-03</internalNodes>
          <leafValues>
            3.1909096240997314e-01 -3.3692443370819092e-01</leafValues></_></weakClassifiers></_>
    <!-- stage 4 -->
    <_>
      <maxWeakCount>13</maxWeakCount>
      <stageThreshold>-1.4944050312042236e+00</stageThreshold>
      <weakClassifiers>
        <_>
          <internalNodes>
            0 -1 160 -2.1586939692497253e-03</internalNodes>
          <leafValues>
            5.9615778923034668e-01 -6.1692786216735840e-01</leafValues></_>
        <_>
          <internalNodes>
            0 -1 9 3.5057567059993744e-02</internalNodes>
          <leafValues>
            -4.3722948431968689e-01 5.6009513139724731e-01</leafValues></_>
        <_>
          <internalNodes>
            0 -1 64 6.5841274335980415e-03</internalNodes>
          <leafValues>
            -6.6806113719940186e-01 3.7199082970619202e-01</leafValues></_>
        <_>
          <internalNodes>
            0 -1 53 1.6777828335762024e-02</internalNodes>
          <leafValues>
            -3.3361890912055969e-01 5.1262634992599487e-01</leafValues></_>
        <_>
          <internalNodes>
            0 -1 158 9.0706301853060722e-03</internalNodes>
          <leafValues>
            2.3101778328418732e-01 -6.5763550996780396e-01</leafValues></_>
        <_>
          <internalNodes>
            0 -1 111 2.5247256417060271e-05</internalNodes>
          <leafValues>
            -6.9690823554992676e-01 1.5688379108905792e-01</leafValues></_>
        <_>
          <internalNodes>
            0 -1 119 2.9642554000020027e-03</internalNodes>
          <leafValues>
            1.8696089088916779e-01 -6.2670582532882690e-01</leafValues></_>
        <_>
          <internalNodes>
            0 -1 239 3.5559656680561602e-04</internalNodes>
          <leafValues>
            1.2393722683191299e-01 -6.4662384986877441e-01</leafValues></_>
        <_>
          <internalNodes>
            0 -1 239 -2.3899540246929973e-04</internalNodes>
          <leafValues>
            -6.4370918273925781e-01 2.5328555703163147e-01</leafValues></_>
        <_>
          <internalNodes>
            0 -1 215 1.1433467734605074e-03</internalNodes>
          <leafValues>
            -7.3633772134780884e-01 1.2645085155963898e-01</leafValues></_>
        <_>
          <internalNodes>
            0 -1 134 -4.8317181062884629e-04</internalNodes>
          <leafValues>
            2.7640834450721741e-01 -4.0040361881256104e-01</leafValues></_>
        <_>
          <internalNodes>
            0 -1 206 2.7527497150003910e-04</internalNodes>
          <leafValues>
            -3.5227715969085693e-01 2.3036445677280426e-01</leafValues></_>
        <_>
          <internalNodes>
            0 -1 0 3.7525632069446146e-04</internalNodes>
          <leafValues>
            1.0546272993087769e-01 -6.3193523883819580e-01</leafValues></_></weakClassifiers></_>
    <!-- stage 5 -->
    <_>
      <maxWeakCount>13</maxWeakCount>
      <stageThreshold>-1.4779143333435059e+00</stageThreshold>
      <weakClassifiers>
        <_>
          <internalNodes>
            0 -1 79 2.0678113214671612e-03</internalNodes>
          <leafValues>
            -5.2396827936172485e-01 6.0398101806640625e-01</leafValues></_>
        <_>
          <internalNodes>
            0 -1 98 3.5743266344070435e-02</internalNodes>
          <leafValues>
            -4.7395253181457520e-01 5.6842917203903198e-01</leafValues></_>
        <_>
          <internalNodes>
            0 -1 141 7.3460960993543267e-04</internalNodes>
          <leafValues>
            -6.4870935678482056e-01 2.9676845669746399e-01</leafValues></_>
        <_>
          <internalNodes>
            0 -1 185 1.7225201008841395e-03</internalNodes>
          <leafValues>
            -7.9352903366088867e-01 2.2596167027950287e-01</leafValues></_>
        <_>
          <internalNodes>
            0 -1 226 -1.9669359549880028e-02</internalNodes>
          <leafValues>
            5.7978099584579468e-01 -3.1687471270561218e-01</leafValues></_>
        <_>
          <internalNodes>
            0 -1 161 3.9299651980400085e-03</internalNodes>
          <leafValues>
            2.0514649152755737e-01 -6.0413604974746704e-01</leafValues></_>
        <_>
          <internalNodes>
            0 -1 152 -3.1692991033196449e-03</internalNodes>
          <leafValues>
            4.1175371408462524e-01 -2.9051020741462708e-01</leafValues></_>
        <_>
          <internalNodes>
            0 -1 12 -4.4434325536713004e-04</internalNodes>
          <leafValues>
            -6.4515930414199829e-01 1.6592209041118622e-01</leafValues></_>
        <_>
          <internalNodes>
            0 -1 2 4.4615296064876020e-04</internalNodes>
          <leafValues>
            2.0483294129371643e-01 -6.6033351421356201e-01</leafValues></_>
        <_>
          <internalNodes>
            0 -1 54 -6.6532805562019348e-02</internalNodes>
          <leafValues>
            5.5469793081283569e-01 -2.1402847766876221e-01</leafValues></_>
        <_>
          <internalNodes>
            0 -1 217 5.6931475410237908e-04</internalNodes>
          <leafValues>
            -5.9627038240432739e-01 1.9929951429367065e-01</leafValues></_>
        <_>
          <internalNodes>
            0 -1 115 5.4634525440633297e-04</internalNodes>
          <leafValues>
            -6.9871634244918823e-01 8.4893509745597839e-02</leafValues></_>
        <_>
          <internalNodes>
            0 -1 236 3.6051933420822024e-04</internalNodes>
          <leafValues>
            1.6160430014133453e-01 -4.6342247724533081e-01</leafValues></_></weakClassifiers></_>
    <!-- stage 6 -->
    <_>
      <maxWeakCount>16</maxWeakCount>
      <stageThreshold>-1.4714041948318481e+00</stageThreshold>
      <weakClassifiers>
        <_>
          <internalNodes>
            0 -1 129 -3.5030864179134369e-02</internalNodes>
          <leafValues>
            7.4820291996002197e-01 -2.2657449543476105e-01</leafValues></_>
        <_>
          <internalNodes>
            0 -1 180 -8.1167183816432953e-04</internalNodes>
          <leafValues>
            3.8435700535774231e-01 -6.3767015933990479e-01</leafValues></_>
        <_>
          <internalNodes>
            0 -1 95 6.3374359160661697e-03</internalNodes>
          <leafValues>
            -4.3277639150619507e-01 3.9405909180641174e-01</leafValues></_>
        <_>
          <internalNodes>
            0 -1 220 1.4515442308038473e-03</internalNodes>
          <leafValues>
            -5.7529848814010620e-01 2.5720623135566711e-01</leafValues></_>
        <_>
          <internalNodes>
            0 -1 75 9.8476279526948929e-04</internalNodes>
          <leafValues>
            -6.8398576974868774e-01 1.8159352242946625e-01</leafValues></_>
        <_>
          <internalNodes>
            0 -1 57 -9.2951918486505747e-04</internalNodes>
          <leafValues>
            2.3362608253955841e-01 -5.3899437189102173e-01</leafValues></_>
        <_>
          <internalNodes>
            0 -1 236 -4.9763394054025412e-04</internalNodes>
          <leafValues>
            -5.8032011985778809e-01 1.7458397150039673e-01</leafValues></_>
        <_>
          <internalNodes>
            0 -1 184 2.2798162535764277e-04</internalNodes>
          <leafValues>
            -5.5335611104965210e-01 1.7650817334651947e-01</leafValues></_>
        <_>
          <internalNodes>
            0 -1 123 -2.4390452381339855e-05</internalNodes>
          <leafValues>
            1.0030984133481979e-01 -6.0399109125137329e-01</leafValues></_>
        <_>
          <internalNodes>
            0 -1 237 3.1871619285084307e-04</internalNodes>
          <leafValues>
            1.5590655803680420e-01 -5.7836365699768066e-01</leafValues></_>
        <_>
          <internalNodes>
            0 -1 110 -1.9419146701693535e-02</internalNodes>
          <leafValues>
            -6.6069793701171875e-01 1.3595734536647797e-01</leafValues></_>
        <_>
          <internalNodes>
            0 -1 59 4.2253565043210983e-03</internalNodes>
          <leafValues>
            -3.2887929677963257e-01 2.5603672862052917e-01</leafValues></_>
        <_>
          <internalNodes>
            0 -1 2 -2.6491045719012618e-04</internalNodes>
          <leafValues>
            -4.7555589675903320e-01 1.6207212209701538e-01</leafValues></_>
        <_>
          <internalNodes>
            0 -1 85 3.2180692069232464e-03</internalNodes>
          <leafValues>
            1.0685911774635315e-01 -6.7001938819885254e-01</leafValues></_>
        <_>
          <internalNodes>
            0 -1 3 4.6073738485574722e-04</internalNodes>
          <leafValues>
            1.4973409473896027e-01 -4.9521595239639282e-01</leafValues></_>
        <_>
          <internalNodes>
            0 -1 221 -2.6089252060046420e-05</internalNodes>
          <leafValues>
            1.7944662272930145e-01 -4.1017830371856689e-01</leafValues></_></weakClassifiers></_>
    <!-- stage 7 -->
    <_>
      <maxWeakCount>18</maxWeakCount>
      <stageThreshold>-1.4077963829040527e+00</stageThreshold>
      <weakClassifiers>
        <_>
          <internalNodes>
            0 -1 97 2.3113811388611794e-02</internalNodes>
          <leafValues>
            -2.8471553325653076e-01 6.8070423603057861e-01</leafValues></_>
        <_>
          <internalNodes>
            0 -1 166 1.0600785026326776e-03</internalNodes>
          <leafValues>
            -5.5178886651992798e-01 3.7385410070419312e-01</leafValues></_>
        <_>
          <internalNodes>
            0 -1 16 -5.3891468793153763e-02</internalNodes>
          <leafValues>
            5.7099848985671997e-01 -2.4410688877105713e-01</leafValues></_>
        <_>
          <internalNodes>
            0 -1 83 2.4387894663959742e-03</internalNodes>
          <leafValues>
            -7.1941065788269043e-01 1.9119551777839661e-01</leafValues></_>
        <_>
          <internalNodes>
            0 -1 136 5.1782676018774509e-04</internalNodes>
          <leafValues>
            -6.8654543161392212e-01 1.6140387952327728e-01</leafValues></_>
        <_>
          <internalNodes>
            0 -1 125 2.4262734223157167e-04</internalNodes>
          <leafValues>
            -4.4604372978210449e-01 2.4317610263824463e-01</leafValues></_>
        <_>
          <internalNodes>
            0 -1 196 9.2307862360030413e-04</internalNodes>
          <leafValues>
            -4.7746998071670532e-01 1.7832112312316895e-01</leafValues></_>
        <_>
          <internalNodes>
            0 -1 133 2.0828323904424906e-03</internalNodes>
          <leafValues>
            1.4892281591892242e-01 -6.5860968828201294e-01</leafValues></_>
        <_>
          <internalNodes>
            0 -1 14 -3.7383919698186219e-04</internalNodes>
          <leafValues>
            -5.0744664669036865e-01 1.5613490343093872e-01</leafValues></_>
        <_>
          <internalNodes>
            0 -1 14 4.6946969814598560e-04</internalNodes>
          <leafValues>
            1.9110564887523651e-01 -5.3838157653808594e-01</leafValues></_>
        <_>
          <internalNodes>
            0 -1 121 -2.3801350835128687e-05</internalNodes>
          <leafValues>
            1.3295850157737732e-01 -5.7387346029281616e-01</leafValues></_>
        <_>
          <internalNodes>
            0 -1 208 -5.9904099907726049e-04</internalNodes>
          <leafValues>
            2.4269503355026245e-01 -3.4579485654830933e-01</leafValues></_>
        <_>
          <internalNodes>
            0 -1 49 -4.2223744094371796e-03</internalNodes>
          <leafValues>
            -6.4615190029144287e-01 1.1071576923131943e-01</leafValues></_>
        <_>
          <internalNodes>
            0 -1 82 1.0610166937112808e-03</internalNodes>
          <leafValues>
            1.3165672123432159e-01 -5.7929998636245728e-01</leafValues></_>
        <_>
          <internalNodes>
            0 -1 164 9.9305436015129089e-04</internalNodes>
          <leafValues>
            -7.8608715534210205e-01 9.1951876878738403e-02</leafValues></_>
        <_>
          <internalNodes>
            0 -1 131 -7.7445164788514376e-04</internalNodes>
          <leafValues>
            -6.3203245401382446e-01 1.0355179756879807e-01</leafValues></_>
        <_>
          <internalNodes>
            0 -1 68 -1.9536332692950964e-03</internalNodes>
          <leafValues>
            -5.3860145807266235e-01 1.1628590524196625e-01</leafValues></_>
        <_>
          <internalNodes>
            0 -1 132 4.9715657951310277e-04</internalNodes>
          <leafValues>
            -3.1987050175666809e-01 1.8471574783325195e-01</leafValues></_></weakClassifiers></_>
    <!-- stage 8 -->
    <_>
      <maxWeakCount>20</maxWeakCount>
      <stageThreshold>-1.5023626089096069e+00</stageThreshold>
      <weakClassifiers>
        <_>
          <internalNodes>
            0 -1 26 3.5196978598833084e-02</internalNodes>
          <leafValues>
            -1.1509606242179871e-01 6.9706678390502930e-01</leafValues></_>
        <_>
          <internalNodes>
            0 -1 214 -2.2084149532020092e-03</internalNodes>
          <leafValues>
            3.5138094425201416e-01 -5.3587698936462402e-01</leafValues></_>
        <_>
          <internalNodes>
            0 -1 211 -5.7124026119709015e-02</internalNodes>
          <leafValues>
            5.7047474384307861e-01 -2.4249155819416046e-01</leafValues></_>
        <_>
          <internalNodes>
            0 -1 147 6.1613149009644985e-03</internalNodes>
          <leafValues>
            1.9470547139644623e-01 -6.4655643701553345e-01</leafValues></_>
        <_>
          <internalNodes>
            0 -1 159 -4.9609434790909290e-04</internalNodes>
          <leafValues>
            1.4929144084453583e-01 -6.6585481166839600e-01</leafValues></_>
        <_>
          <internalNodes>
            0 -1 104 1.6658228123560548e-03</internalNodes>
          <leafValues>
            -6.8456411361694336e-01 1.3491356372833252e-01</leafValues></_>
        <_>
          <internalNodes>
            0 -1 237 -3.4755180240608752e-04</internalNodes>
          <leafValues>
            -6.2456315755844116e-01 1.0234476625919342e-01</leafValues></_>
        <_>
          <internalNodes>
            0 -1 236 4.0792371146380901e-04</internalNodes>
          <leafValues>
            1.8100546300411224e-01 -5.6118434667587280e-01</leafValues></_>
        <_>
          <internalNodes>
            0 -1 153 -4.2667128145694733e-03</internalNodes>
          <leafValues>
            4.1346061229705811e-01 -2.4699534475803375e-01</leafValues></_>
        <_>
          <internalNodes>
            0 -1 112 9.4106083270162344e-04</internalNodes>
          <leafValues>
            -5.5461657047271729e-01 1.4325076341629028e-01</leafValues></_>
        <_>
          <internalNodes>
            0 -1 39 1.2821793556213379e-02</internalNodes>
          <leafValues>
            -4.1979554295539856e-01 2.2382140159606934e-01</leafValues></_>
        <_>
          <internalNodes>
            0 -1 45 -1.7525753006339073e-02</internalNodes>
          <leafValues>
            -6.4009118080139160e-01 1.1412066221237183e-01</leafValues></_>
        <_>
          <internalNodes>
            0 -1 189 1.3193575432524085e-03</internalNodes>
          <leafValues>
            1.1181601881980896e-01 -6.4077794551849365e-01</leafValues></_>
        <_>
          <internalNodes>
            0 -1 88 2.4809013120830059e-03</internalNodes>
          <leafValues>
            1.1241523176431656e-01 -5.7540684938430786e-01</leafValues></_>
        <_>
          <internalNodes>
            0 -1 118 -1.7598378472030163e-03</internalNodes>
          <leafValues>
            -5.3183227777481079e-01 1.1374028772115707e-01</leafValues></_>
        <_>
          <internalNodes>
            0 -1 93 9.3427929095923901e-04</internalNodes>
          <leafValues>
            -2.5025933980941772e-01 2.6854732632637024e-01</leafValues></_>
        <_>
          <internalNodes>
            0 -1 1 -2.8767471667379141e-04</internalNodes>
          <leafValues>
            -4.7338777780532837e-01 1.3064363598823547e-01</leafValues></_>
        <_>
          <internalNodes>
            0 -1 1 3.3997389255091548e-04</internalNodes>
          <leafValues>
            1.5858347713947296e-01 -5.7080042362213135e-01</leafValues></_>
        <_>
          <internalNodes>
            0 -1 36 2.1407064050436020e-03</internalNodes>
          <leafValues>
            -6.3242918252944946e-01 7.4903719127178192e-02</leafValues></_>
        <_>
          <internalNodes>
            0 -1 224 -6.2859125435352325e-02</internalNodes>
          <leafValues>
            4.7967058420181274e-01 -1.2611541152000427e-01</leafValues></_></weakClassifiers></_>
    <!-- stage 9 -->
    <_>
      <maxWeakCount>20</maxWeakCount>
      <stageThreshold>-1.4351546764373779e+00</stageThreshold>
      <weakClassifiers>
        <_>
          <internalNodes>
            0 -1 96 -4.8184245824813843e-02</internalNodes>
          <leafValues>
            7.3515558242797852e-01 -7.9341627657413483e-02</leafValues></_>
        <_>
          <internalNodes>
            0 -1 47 1.2577566085383296e-03</internalNodes>
          <leafValues>
            -5.6740939617156982e-01 3.5089814662933350e-01</leafValues></_>
        <_>
          <internalNodes>
            0 -1 38 1.4290030300617218e-01</internalNodes>
          <leafValues>
            -2.9928830265998840e-01 4.5403873920440674e-01</leafValues></_>
        <_>
          <internalNodes>
            0 -1 228 -4.1200668783858418e-04</internalNodes>
          <leafValues>
            2.5435319542884827e-01 -4.6403387188911438e-01</leafValues></_>
        <_>
          <internalNodes>
            0 -1 197 1.5984883066266775e-03</internalNodes>
          <leafValues>
            -3.9012160897254944e-01 2.8214171528816223e-01</leafValues></_>
        <_>
          <internalNodes>
            0 -1 46 -5.7382596423849463e-04</internalNodes>
          <leafValues>
            -6.1516219377517700e-01 1.3051587343215942e-01</leafValues></_>
        <_>
          <internalNodes>
            0 -1 178 -5.7458702940493822e-04</internalNodes>
          <leafValues>
            1.4719660580158234e-01 -6.4452427625656128e-01</leafValues></_>
        <_>
          <internalNodes>
            0 -1 240 -3.3507859916426241e-04</internalNodes>
          <leafValues>
            -5.7284665107727051e-01 1.4110392332077026e-01</leafValues></_>
        <_>
          <internalNodes>
            0 -1 240 3.7205748958513141e-04</internalNodes>
          <leafValues>
            2.1343100070953369e-01 -5.8958071470260620e-01</leafValues></_>
        <_>
          <internalNodes>
            0 -1 206 4.7028099652379751e-04</internalNodes>
          <leafValues>
            -3.9243996143341064e-01 2.1969486773014069e-01</leafValues></_>
        <_>
          <internalNodes>
            0 -1 63 1.2126993387937546e-03</internalNodes>
          <leafValues>
            1.2849217653274536e-01 -6.0909521579742432e-01</leafValues></_>
        <_>
          <internalNodes>
            0 -1 167 2.3344845976680517e-03</internalNodes>
          <leafValues>
            -6.6808611154556274e-01 1.1728404462337494e-01</leafValues></_>
        <_>
          <internalNodes>
            0 -1 210 1.0932612419128418e-01</internalNodes>
          <leafValues>
            -1.3961587846279144e-01 6.1175543069839478e-01</leafValues></_>
        <_>
          <internalNodes>
            0 -1 67 -2.2299189367913641e-05</internalNodes>
          <leafValues>
            1.8899825215339661e-01 -3.9244532585144043e-01</leafValues></_>
        <_>
          <internalNodes>
            0 -1 135 1.9177819922333583e-05</internalNodes>
          <leafValues>
            -4.2305254936218262e-01 1.4791984856128693e-01</leafValues></_>
        <_>
          <internalNodes>
            0 -1 222 -1.5823240391910076e-03</internalNodes>
          <leafValues>
            -5.5135905742645264e-01 1.0467112064361572e-01</leafValues></_>
        <_>
          <internalNodes>
            0 -1 27 3.2614484429359436e-02</internalNodes>
          <leafValues>
            -1.5329098701477051e-01 4.0319880843162537e-01</leafValues></_>
        <_>
          <internalNodes>
            0 -1 8 -1.2527236342430115e-01</internalNodes>
          <leafValues>
            6.2245678901672363e-01 -1.1111706495285034e-01</leafValues></_>
        <_>
          <internalNodes>
            0 -1 149 2.2048818209441379e-05</internalNodes>
          <leafValues>
            -2.9860201478004456e-01 2.1663430333137512e-01</leafValues></_>
        <_>
          <internalNodes>
            0 -1 144 -6.0708289965987206e-03</internalNodes>
          <leafValues>
            -6.0011321306228638e-01 9.4036556780338287e-02</leafValues></_></weakClassifiers></_>
    <!-- stage 10 -->
    <_>
      <maxWeakCount>24</maxWeakCount>
      <stageThreshold>-1.4493806362152100e+00</stageThreshold>
      <weakClassifiers>
        <_>
          <internalNodes>
            0 -1 99 -3.3452138304710388e-02</internalNodes>
          <leafValues>
            6.4559203386306763e-01 -1.5126632153987885e-01</leafValues></_>
        <_>
          <internalNodes>
            0 -1 219 -1.2315644416958094e-03</internalNodes>
          <leafValues>
            3.0394196510314941e-01 -5.6829071044921875e-01</leafValues></_>
        <_>
          <internalNodes>
            0 -1 201 2.1283143723849207e-05</internalNodes>
          <leafValues>
            -4.3987640738487244e-01 2.4422217905521393e-01</leafValues></_>
        <_>
          <internalNodes>
            0 -1 90 -1.0517715054447763e-05</internalNodes>
          <leafValues>
            1.6072215139865875e-01 -6.0673594474792480e-01</leafValues></_>
        <_>
          <internalNodes>
            0 -1 56 -1.2367040617391467e-03</internalNodes>
          <leafValues>
            1.9784152507781982e-01 -4.7162431478500366e-01</leafValues></_>
        <_>
          <internalNodes>
            0 -1 172 -1.4931571204215288e-03</internalNodes>
          <leafValues>
            3.2419201731681824e-01 -2.9275798797607422e-01</leafValues></_>
        <_>
          <internalNodes>
            0 -1 107 1.6053249128162861e-03</internalNodes>
          <leafValues>
            -6.7837637662887573e-01 1.2924747169017792e-01</leafValues></_>
        <_>
          <internalNodes>
            0 -1 232 -4.1083089308813214e-04</internalNodes>
          <leafValues>
            -5.7359367609024048e-01 1.4771002531051636e-01</leafValues></_>
        <_>
          <internalNodes>
            0 -1 4 -4.2009953176602721e-04</internalNodes>
          <leafValues>
            -5.4971271753311157e-01 1.2748937308788300e-01</leafValues></_>
        <_>
          <internalNodes>
            0 -1 4 5.5473321117460728e-04</internalNodes>
          <leafValues>
            1.6567817330360413e-01 -5.4942965507507324e-01</leafValues></_>
        <_>
          <internalNodes>
            0 -1 76 -1.8203158397227526e-03</internalNodes>
          <leafValues>
            1.4268426597118378e-01 -5.2629733085632324e-01</leafValues></_>
        <_>
          <internalNodes>
            0 -1 117 -5.1048006862401962e-03</internalNodes>
          <leafValues>
            -7.0280754566192627e-01 7.4884839355945587e-02</leafValues></_>
        <_>
          <internalNodes>
            0 -1 77 -6.7055602557957172e-03</internalNodes>
          <leafValues>
            -6.7179316282272339e-01 9.2772290110588074e-02</leafValues></_>
        <_>
          <internalNodes>
            0 -1 181 3.2807360403239727e-03</internalNodes>
          <leafValues>
            1.2203068286180496e-01 -5.6921571493148804e-01</leafValues></_>
        <_>
          <internalNodes>
            0 -1 175 -1.7652241513133049e-03</internalNodes>
          <leafValues>
            -6.4047831296920776e-01 8.6960092186927795e-02</leafValues></_>
        <_>
          <internalNodes>
            0 -1 33 4.0951643139123917e-02</internalNodes>
          <leafValues>
            -1.8153931200504303e-01 3.5906472802162170e-01</leafValues></_>
        <_>
          <internalNodes>
            0 -1 244 -3.4118822077289224e-04</internalNodes>
          <leafValues>
            -4.8673495650291443e-01 1.4023181796073914e-01</leafValues></_>
        <_>
          <internalNodes>
            0 -1 244 3.6467608879320323e-04</internalNodes>
          <leafValues>
            1.0649124532938004e-01 -5.3348314762115479e-01</leafValues></_>
        <_>
          <internalNodes>
            0 -1 182 1.1905918654520065e-04</internalNodes>
          <leafValues>
            -5.7516342401504517e-01 9.1773085296154022e-02</leafValues></_>
        <_>
          <internalNodes>
            0 -1 43 -2.0634129643440247e-02</internalNodes>
          <leafValues>
            2.4153001606464386e-01 -2.2295105457305908e-01</leafValues></_>
        <_>
          <internalNodes>
            0 -1 66 1.4915108913555741e-03</internalNodes>
          <leafValues>
            9.0595655143260956e-02 -5.0368338823318481e-01</leafValues></_>
        <_>
          <internalNodes>
            0 -1 207 -2.3264402989298105e-04</internalNodes>
          <leafValues>
            1.7889760434627533e-01 -2.7786508202552795e-01</leafValues></_>
        <_>
          <internalNodes>
            0 -1 170 1.6966597177088261e-03</internalNodes>
          <leafValues>
            8.2837052643299103e-02 -6.1759972572326660e-01</leafValues></_>
        <_>
          <internalNodes>
            0 -1 165 -1.2415254022926092e-03</internalNodes>
          <leafValues>
            1.2372229248285294e-01 -3.7300300598144531e-01</leafValues></_></weakClassifiers></_>
    <!-- stage 11 -->
    <_>
      <maxWeakCount>29</maxWeakCount>
      <stageThreshold>-1.4105426073074341e+00</stageThreshold>
      <weakClassifiers>
        <_>
          <internalNodes>
            0 -1 98 4.3807864189147949e-02</internalNodes>
          <leafValues>
            -1.1205717921257019e-01 6.3395172357559204e-01</leafValues></_>
        <_>
          <internalNodes>
            0 -1 113 -1.4295680448412895e-03</internalNodes>
          <leafValues>
            3.1589365005493164e-01 -4.8694100975990295e-01</leafValues></_>
        <_>
          <internalNodes>
            0 -1 226 -2.2191697731614113e-02</internalNodes>
          <leafValues>
            4.5948189496994019e-01 -2.4357984960079193e-01</leafValues></_>
        <_>
          <internalNodes>
            0 -1 152 -3.9727566763758659e-03</internalNodes>
          <leafValues>
            3.8835576176643372e-01 -2.4635282158851624e-01</leafValues></_>
        <_>
          <internalNodes>
            0 -1 42 -9.7623653709888458e-02</internalNodes>
          <leafValues>
            5.4872548580169678e-01 -2.0320583879947662e-01</leafValues></_>
        <_>
          <internalNodes>
            0 -1 187 -2.3834720195736736e-05</internalNodes>
          <leafValues>
            1.8491642177104950e-01 -5.2350437641143799e-01</leafValues></_>
        <_>
          <internalNodes>
            0 -1 163 -2.2487607784569263e-03</internalNodes>
          <leafValues>
            1.4406712353229523e-01 -5.4732418060302734e-01</leafValues></_>
        <_>
          <internalNodes>
            0 -1 3 -3.2474874751642346e-04</internalNodes>
          <leafValues>
            -5.2294170856475830e-01 1.2155227363109589e-01</leafValues></_>
        <_>
          <internalNodes>
            0 -1 13 4.3448290671221912e-04</internalNodes>
          <leafValues>
            1.4063909649848938e-01 -5.2589321136474609e-01</leafValues></_>
        <_>
          <internalNodes>
            0 -1 73 -4.4829905964434147e-03</internalNodes>
          <leafValues>
            -7.9118692874908447e-01 7.6029628515243530e-02</leafValues></_>
        <_>
          <internalNodes>
            0 -1 179 -1.0599873348837718e-05</internalNodes>
          <leafValues>
            9.6234835684299469e-02 -6.5789753198623657e-01</leafValues></_>
        <_>
          <internalNodes>
            0 -1 69 9.1531872749328613e-04</internalNodes>
          <leafValues>
            -2.8633671998977661e-01 2.3439055681228638e-01</leafValues></_>
        <_>
          <internalNodes>
            0 -1 170 -1.3062666403129697e-03</internalNodes>
          <leafValues>
            -6.1216515302658081e-01 9.0756490826606750e-02</leafValues></_>
        <_>
          <internalNodes>
            0 -1 101 1.3520005159080029e-03</internalNodes>
          <leafValues>
            -3.2962280511856079e-01 1.7678965628147125e-01</leafValues></_>
        <_>
          <internalNodes>
            0 -1 145 2.9859169444534928e-05</internalNodes>
          <leafValues>
            -5.2766090631484985e-01 1.1414254456758499e-01</leafValues></_>
        <_>
          <internalNodes>
            0 -1 234 -2.8749592602252960e-03</internalNodes>
          <leafValues>
            -5.5291694402694702e-01 9.4673134386539459e-02</leafValues></_>
        <_>
          <internalNodes>
            0 -1 242 -3.2720121089369059e-04</internalNodes>
          <leafValues>
            -4.6080309152603149e-01 1.1860522627830505e-01</leafValues></_>
        <_>
          <internalNodes>
            0 -1 241 2.9133932548575103e-04</internalNodes>
          <leafValues>
            1.2033822387456894e-01 -4.5961669087409973e-01</leafValues></_>
        <_>
          <internalNodes>
            0 -1 122 -1.0928682058874983e-05</internalNodes>
          <leafValues>
            1.0294228047132492e-01 -5.0354373455047607e-01</leafValues></_>
        <_>
          <internalNodes>
            0 -1 106 -4.6191972796805203e-04</internalNodes>
          <leafValues>
            1.7837671935558319e-01 -3.0073037743568420e-01</leafValues></_>
        <_>
          <internalNodes>
            0 -1 148 3.3431695774197578e-03</internalNodes>
          <leafValues>
            9.1738358139991760e-02 -5.3864383697509766e-01</leafValues></_>
        <_>
          <internalNodes>
            0 -1 205 2.1283125533955172e-05</internalNodes>
          <leafValues>
            -2.9781836271286011e-01 1.6695128381252289e-01</leafValues></_>
        <_>
          <internalNodes>
            0 -1 191 -1.6727622598409653e-02</internalNodes>
          <leafValues>
            -5.5099743604660034e-01 1.0797195881605148e-01</leafValues></_>
        <_>
          <internalNodes>
            0 -1 34 -3.2568993046879768e-03</internalNodes>
          <leafValues>
            -5.3792232275009155e-01 7.6466120779514313e-02</leafValues></_>
        <_>
          <internalNodes>
            0 -1 22 5.4362551309168339e-03</internalNodes>
          <leafValues>
            -5.3583091497421265e-01 8.4240242838859558e-02</leafValues></_>
        <_>
          <internalNodes>
            0 -1 80 -2.5251174811273813e-03</internalNodes>
          <leafValues>
            -6.3453298807144165e-01 6.2601931393146515e-02</leafValues></_>
        <_>
          <internalNodes>
            0 -1 157 1.9353622337803245e-03</internalNodes>
          <leafValues>
            7.9477138817310333e-02 -4.7258004546165466e-01</leafValues></_>
        <_>
          <internalNodes>
            0 -1 156 -1.7511543119326234e-03</internalNodes>
          <leafValues>
            -5.7985162734985352e-01 7.6576434075832367e-02</leafValues></_>
        <_>
          <internalNodes>
            0 -1 70 -1.0973344743251801e-01</internalNodes>
          <leafValues>
            4.3169361352920532e-01 -1.1192896217107773e-01</leafValues></_></weakClassifiers></_>
    <!-- stage 12 -->
    <_>
      <maxWeakCount>33</maxWeakCount>
      <stageThreshold>-1.4791713953018188e+00</stageThreshold>
      <weakClassifiers>
        <_>
          <internalNodes>
            0 -1 15 2.9851457104086876e-02</internalNodes>
          <leafValues>
            -1.6857552528381348e-01 6.0086667537689209e-01</leafValues></_>
        <_>
          <internalNodes>
            0 -1 62 2.0372923463582993e-03</internalNodes>
          <leafValues>
            -5.2184903621673584e-01 2.8956201672554016e-01</leafValues></_>
        <_>
          <internalNodes>
            0 -1 128 1.5989337116479874e-03</internalNodes>
          <leafValues>
            -3.6499357223510742e-01 2.9494389891624451e-01</leafValues></_>
        <_>
          <internalNodes>
            0 -1 81 -7.1668328018859029e-04</internalNodes>
          <leafValues>
            1.7040596902370453e-01 -5.4829144477844238e-01</leafValues></_>
        <_>
          <internalNodes>
            0 -1 196 1.9188859732821584e-03</internalNodes>
          <leafValues>
            -4.5101675391197205e-01 2.1011810004711151e-01</leafValues></_>
        <_>
          <internalNodes>
            0 -1 227 6.2765483744442463e-04</internalNodes>
          <leafValues>
            -5.5943500995635986e-01 1.3795349001884460e-01</leafValues></_>
        <_>
          <internalNodes>
            0 -1 118 1.5217778272926807e-03</internalNodes>
          <leafValues>
            1.2707561254501343e-01 -5.6908106803894043e-01</leafValues></_>
        <_>
          <internalNodes>
            0 -1 203 -4.0733249625191092e-04</internalNodes>
          <leafValues>
            1.9626918435096741e-01 -3.3726561069488525e-01</leafValues></_>
        <_>
          <internalNodes>
            0 -1 231 -4.9948139348998666e-04</internalNodes>
          <leafValues>
            -4.3851712346076965e-01 1.4603775739669800e-01</leafValues></_>
        <_>
          <internalNodes>
            0 -1 230 4.0034888661466539e-04</internalNodes>
          <leafValues>
            1.4331278204917908e-01 -5.1546245813369751e-01</leafValues></_>
        <_>
          <internalNodes>
            0 -1 35 -2.6626258622854948e-03</internalNodes>
          <leafValues>
            -6.7110460996627808e-01 9.7053110599517822e-02</leafValues></_>
        <_>
          <internalNodes>
            0 -1 136 8.7375758448615670e-04</internalNodes>
          <leafValues>
            -5.0513947010040283e-01 1.1211457103490829e-01</leafValues></_>
        <_>
          <internalNodes>
            0 -1 151 -4.5541101135313511e-03</internalNodes>
          <leafValues>
            2.0907926559448242e-01 -2.9293477535247803e-01</leafValues></_>
        <_>
          <internalNodes>
            0 -1 213 5.3259003907442093e-03</internalNodes>
          <leafValues>
            1.4537477493286133e-01 -3.7929654121398926e-01</leafValues></_>
        <_>
          <internalNodes>
            0 -1 162 -8.9620556682348251e-03</internalNodes>
          <leafValues>
            -5.9617298841476440e-01 8.7253764271736145e-02</leafValues></_>
        <_>
          <internalNodes>
            0 -1 149 1.0077287697640713e-05</internalNodes>
          <leafValues>
            -3.3035883307456970e-01 1.6563203930854797e-01</leafValues></_>
        <_>
          <internalNodes>
            0 -1 7 -1.2887772917747498e-01</internalNodes>
          <leafValues>
            5.7548183202743530e-01 -8.9170075953006744e-02</leafValues></_>
        <_>
          <internalNodes>
            0 -1 28 5.8672465384006500e-02</internalNodes>
          <leafValues>
            -1.4853529632091522e-01 4.2780509591102600e-01</leafValues></_>
        <_>
          <internalNodes>
            0 -1 0 -3.3558887662366033e-04</internalNodes>
          <leafValues>
            -5.4971951246261597e-01 8.9028656482696533e-02</leafValues></_>
        <_>
          <internalNodes>
            0 -1 223 -4.1444189846515656e-02</internalNodes>
          <leafValues>
            3.4998461604118347e-01 -1.3637006282806396e-01</leafValues></_>
        <_>
          <internalNodes>
            0 -1 58 2.0261532627046108e-03</internalNodes>
          <leafValues>
            -2.3522834479808807e-01 1.9556987285614014e-01</leafValues></_>
        <_>
          <internalNodes>
            0 -1 0 3.2983234268613160e-04</internalNodes>
          <leafValues>
            7.7432632446289062e-02 -5.7366454601287842e-01</leafValues></_>
        <_>
          <internalNodes>
            0 -1 66 1.0268217884004116e-03</internalNodes>
          <leafValues>
            9.7184628248214722e-02 -4.2542535066604614e-01</leafValues></_>
        <_>
          <internalNodes>
            0 -1 51 -4.5817475765943527e-03</internalNodes>
          <leafValues>
            -5.8933609724044800e-01 7.2787985205650330e-02</leafValues></_>
        <_>
          <internalNodes>
            0 -1 160 -1.4894787454977632e-03</internalNodes>
          <leafValues>
            7.8511931002140045e-02 -5.0060164928436279e-01</leafValues></_>
        <_>
          <internalNodes>
            0 -1 190 -9.9097087513655424e-06</internalNodes>
          <leafValues>
            8.6978860199451447e-02 -4.3737199902534485e-01</leafValues></_>
        <_>
          <internalNodes>
            0 -1 130 1.4013782143592834e-01</internalNodes>
          <leafValues>
            -8.7588585913181305e-02 5.2034378051757812e-01</leafValues></_>
        <_>
          <internalNodes>
            0 -1 171 1.0638998355716467e-03</internalNodes>
          <leafValues>
            -1.8792341649532318e-01 2.2406141459941864e-01</leafValues></_>
        <_>
          <internalNodes>
            0 -1 100 -1.9633327610790730e-03</internalNodes>
          <leafValues>
            -5.0043946504592896e-01 7.4799232184886932e-02</leafValues></_>
        <_>
          <internalNodes>
            0 -1 115 1.1565319728106260e-03</internalNodes>
          <leafValues>
            -5.3376460075378418e-01 6.5919525921344757e-02</leafValues></_>
        <_>
          <internalNodes>
            0 -1 120 -2.2126849216874689e-05</internalNodes>
          <leafValues>
            1.6279807686805725e-01 -2.3644511401653290e-01</leafValues></_>
        <_>
          <internalNodes>
            0 -1 235 1.8772521289065480e-03</internalNodes>
          <leafValues>
            7.9689979553222656e-02 -4.3724113702774048e-01</leafValues></_>
        <_>
          <internalNodes>
            0 -1 37 -5.0357133150100708e-03</internalNodes>
          <leafValues>
            -4.6029564738273621e-01 6.9066181778907776e-02</leafValues></_></weakClassifiers></_>
    <!-- stage 13 -->
    <_>
      <maxWeakCount>39</maxWeakCount>
      <stageThreshold>-1.4817175865173340e+00</stageThreshold>
      <weakClassifiers>
        <_>
          <internalNodes>
            0 -1 173 -2.8567008674144745e-02</internalNodes>
          <leafValues>
            6.5478932857513428e-01 -6.5454438328742981e-02</leafValues></_>
        <_>
          <internalNodes>
            0 -1 220 2.1904031746089458e-03</internalNodes>
          <leafValues>
            -4.9493002891540527e-01 2.9182365536689758e-01</leafValues></_>
        <_>
          <internalNodes>
            0 -1 91 1.8089606892317533e-03</internalNodes>
          <leafValues>
            -3.6725366115570068e-01 2.6201361417770386e-01</leafValues></_>
        <_>
          <internalNodes>
            0 -1 74 -7.0127390790730715e-04</internalNodes>
          <leafValues>
            1.7924456298351288e-01 -4.9050793051719666e-01</leafValues></_>
        <_>
          <internalNodes>
            0 -1 177 6.5472885034978390e-04</internalNodes>
          <leafValues>
            -4.3169400095939636e-01 1.8569059669971466e-01</leafValues></_>
        <_>
          <internalNodes>
            0 -1 184 4.8389658331871033e-04</internalNodes>
          <leafValues>
            -5.4386705160140991e-01 1.3541918992996216e-01</leafValues></_>
        <_>
          <internalNodes>
            0 -1 24 -3.9937818655744195e-04</internalNodes>
          <leafValues>
            -4.7457796335220337e-01 1.3475424051284790e-01</leafValues></_>
        <_>
          <internalNodes>
            0 -1 25 5.0792930414900184e-04</internalNodes>
          <leafValues>
            1.3707980513572693e-01 -4.8275983333587646e-01</leafValues></_>
        <_>
          <internalNodes>
            0 -1 72 -2.2732878278475255e-05</internalNodes>
          <leafValues>
            1.0868800431489944e-01 -4.5330953598022461e-01</leafValues></_>
        <_>
          <internalNodes>
            0 -1 107 2.1779537200927734e-03</internalNodes>
          <leafValues>
            -5.2344405651092529e-01 1.0883350670337677e-01</leafValues></_>
        <_>
          <internalNodes>
            0 -1 198 3.4458264708518982e-03</internalNodes>
          <leafValues>
            1.3387849926948547e-01 -5.1035988330841064e-01</leafValues></_>
        <_>
          <internalNodes>
            0 -1 143 1.0968422517180443e-02</internalNodes>
          <leafValues>
            7.9639308154582977e-02 -5.8709973096847534e-01</leafValues></_>
        <_>
          <internalNodes>
            0 -1 138 -1.7908144742250443e-02</internalNodes>
          <leafValues>
            -6.8912070989608765e-01 7.8911766409873962e-02</leafValues></_>
        <_>
          <internalNodes>
            0 -1 124 -2.1312778699211776e-05</internalNodes>
          <leafValues>
            1.5547305345535278e-01 -3.3966165781021118e-01</leafValues></_>
        <_>
          <internalNodes>
            0 -1 92 -3.0466881580650806e-03</internalNodes>
          <leafValues>
            -5.9431058168411255e-01 6.9267220795154572e-02</leafValues></_>
        <_>
          <internalNodes>
            0 -1 205 2.2636280846199952e-05</internalNodes>
          <leafValues>
            -3.1479245424270630e-01 1.4407029747962952e-01</leafValues></_>
        <_>
          <internalNodes>
            0 -1 186 -1.1232908946112730e-05</internalNodes>
          <leafValues>
            8.6522169411182404e-02 -5.5564665794372559e-01</leafValues></_>
        <_>
          <internalNodes>
            0 -1 55 -2.4507120251655579e-02</internalNodes>
          <leafValues>
            2.4701046943664551e-01 -2.0153257250785828e-01</leafValues></_>
        <_>
          <internalNodes>
            0 -1 238 -3.1555895111523569e-04</internalNodes>
          <leafValues>
            -4.3065071105957031e-01 1.0482163727283478e-01</leafValues></_>
        <_>
          <internalNodes>
            0 -1 20 1.7358043789863586e-01</internalNodes>
          <leafValues>
            -1.0693266242742538e-01 4.0863382816314697e-01</leafValues></_>
        <_>
          <internalNodes>
            0 -1 10 -9.0966790914535522e-02</internalNodes>
          <leafValues>
            4.9123290181159973e-01 -9.9159985780715942e-02</leafValues></_>
        <_>
          <internalNodes>
            0 -1 238 3.9046790334396064e-04</internalNodes>
          <leafValues>
            9.7720295190811157e-02 -4.5038896799087524e-01</leafValues></_>
        <_>
          <internalNodes>
            0 -1 127 -8.4942691028118134e-03</internalNodes>
          <leafValues>
            1.8618424236774445e-01 -2.2445414960384369e-01</leafValues></_>
        <_>
          <internalNodes>
            0 -1 229 1.4822992961853743e-03</internalNodes>
          <leafValues>
            8.1077814102172852e-02 -4.6563592553138733e-01</leafValues></_>
        <_>
          <internalNodes>
            0 -1 176 -6.2434800202026963e-04</internalNodes>
          <leafValues>
            8.5012190043926239e-02 -4.2987689375877380e-01</leafValues></_>
        <_>
          <internalNodes>
            0 -1 44 2.2559060156345367e-01</internalNodes>
          <leafValues>
            -8.3690799772739410e-02 4.8984581232070923e-01</leafValues></_>
        <_>
          <internalNodes>
            0 -1 155 3.3572781831026077e-03</internalNodes>
          <leafValues>
            8.4776490926742554e-02 -5.0740820169448853e-01</leafValues></_>
        <_>
          <internalNodes>
            0 -1 104 9.6522970125079155e-04</internalNodes>
          <leafValues>
            -6.6547262668609619e-01 4.9901165068149567e-02</leafValues></_>
        <_>
          <internalNodes>
            0 -1 88 -2.2296858951449394e-03</internalNodes>
          <leafValues>
            -4.4536963105201721e-01 7.1841478347778320e-02</leafValues></_>
        <_>
          <internalNodes>
            0 -1 65 1.9891280317096971e-05</internalNodes>
          <leafValues>
            -2.4861520528793335e-01 1.3068528473377228e-01</leafValues></_>
        <_>
          <internalNodes>
            0 -1 19 1.3106763362884521e-02</internalNodes>
          <leafValues>
            6.6302113234996796e-02 -4.8193755745887756e-01</leafValues></_>
        <_>
          <internalNodes>
            0 -1 21 -2.0511317998170853e-02</internalNodes>
          <leafValues>
            -4.5725017786026001e-01 6.5508492290973663e-02</leafValues></_>
        <_>
          <internalNodes>
            0 -1 194 8.3633809117600322e-04</internalNodes>
          <leafValues>
            -2.4585586786270142e-01 1.1891637742519379e-01</leafValues></_>
        <_>
          <internalNodes>
            0 -1 204 -1.9346629414940253e-05</internalNodes>
          <leafValues>
            8.9673489332199097e-02 -3.2713106274604797e-01</leafValues></_>
        <_>
          <internalNodes>
            0 -1 168 -1.3760654255747795e-03</internalNodes>
          <leafValues>
            2.4554713070392609e-01 -1.3250645995140076e-01</leafValues></_>
        <_>
          <internalNodes>
            0 -1 40 1.8058694899082184e-02</internalNodes>
          <leafValues>
            5.6614823639392853e-02 -5.6524294614791870e-01</leafValues></_>
        <_>
          <internalNodes>
            0 -1 212 1.3600870966911316e-02</internalNodes>
          <leafValues>
            5.7110767811536789e-02 -4.7364231944084167e-01</leafValues></_>
        <_>
          <internalNodes>
            0 -1 154 -2.6598405092954636e-03</internalNodes>
          <leafValues>
            -5.7334548234939575e-01 4.5351810753345490e-02</leafValues></_>
        <_>
          <internalNodes>
            0 -1 30 3.0944544821977615e-02</internalNodes>
          <leafValues>
            -9.4409391283988953e-02 3.1563010811805725e-01</leafValues></_></weakClassifiers></_>
    <!-- stage 14 -->
    <_>
      <maxWeakCount>42</maxWeakCount>
      <stageThreshold>-1.4718220233917236e+00</stageThreshold>
      <weakClassifiers>
        <_>
          <internalNodes>
            0 -1 32 3.1596451997756958e-02</internalNodes>
          <leafValues>
            -2.8936434537172318e-02 6.5957409143447876e-01</leafValues></_>
        <_>
          <internalNodes>
            0 -1 166 1.8181197810918093e-03</internalNodes>
          <leafValues>
            -3.8596168160438538e-01 3.0340513586997986e-01</leafValues></_>
        <_>
          <internalNodes>
            0 -1 193 -2.0649447105824947e-03</internalNodes>
          <leafValues>
            2.5481164455413818e-01 -3.3374306559562683e-01</leafValues></_>
        <_>
          <internalNodes>
            0 -1 102 4.6169003471732140e-03</internalNodes>
          <leafValues>
            -3.5816043615341187e-01 2.3482276499271393e-01</leafValues></_>
        <_>
          <internalNodes>
            0 -1 89 -2.0217230485286564e-05</internalNodes>
          <leafValues>
            1.4779868721961975e-01 -5.2467888593673706e-01</leafValues></_>
        <_>
          <internalNodes>
            0 -1 48 8.2880230620503426e-03</internalNodes>
          <leafValues>
            1.1032796651124954e-01 -5.7680100202560425e-01</leafValues></_>
        <_>
          <internalNodes>
            0 -1 192 2.8227055445313454e-03</internalNodes>
          <leafValues>
            9.2137403786182404e-02 -6.0873723030090332e-01</leafValues></_>
        <_>
          <internalNodes>
            0 -1 31 -6.3150183996185660e-04</internalNodes>
          <leafValues>
            -4.1021963953971863e-01 1.1174818128347397e-01</leafValues></_>
        <_>
          <internalNodes>
            0 -1 31 6.8869115784764290e-04</internalNodes>
          <leafValues>
            2.0576661825180054e-01 -4.3020719289779663e-01</leafValues></_>
        <_>
          <internalNodes>
            0 -1 61 6.1186251696199179e-04</internalNodes>
          <leafValues>
            -3.3894252777099609e-01 1.7390982806682587e-01</leafValues></_>
        <_>
          <internalNodes>
            0 -1 146 2.0743482746183872e-03</internalNodes>
          <leafValues>
            8.2112610340118408e-02 -5.5207860469818115e-01</leafValues></_>
        <_>
          <internalNodes>
            0 -1 183 1.2028176570311189e-03</internalNodes>
          <leafValues>
            8.1706494092941284e-02 -5.9276330471038818e-01</leafValues></_>
        <_>
          <internalNodes>
            0 -1 200 2.2790422663092613e-03</internalNodes>
          <leafValues>
            -2.6912814378738403e-01 2.3503221571445465e-01</leafValues></_>
        <_>
          <internalNodes>
            0 -1 209 1.0428319126367569e-01</internalNodes>
          <leafValues>
            -1.2398450821638107e-01 5.1638609170913696e-01</leafValues></_>
        <_>
          <internalNodes>
            0 -1 195 -7.0455891545861959e-04</internalNodes>
          <leafValues>
            1.7723026871681213e-01 -3.1381720304489136e-01</leafValues></_>
        <_>
          <internalNodes>
            0 -1 139 -4.9290815368294716e-03</internalNodes>
          <leafValues>
            -6.7592108249664307e-01 6.4630694687366486e-02</leafValues></_>
        <_>
          <internalNodes>
            0 -1 225 -3.8785059005022049e-03</internalNodes>
          <leafValues>
            -3.9808008074760437e-01 1.1093743145465851e-01</leafValues></_>
        <_>
          <internalNodes>
            0 -1 52 1.8783435225486755e-03</internalNodes>
          <leafValues>
            -2.1911275386810303e-01 1.8826103210449219e-01</leafValues></_>
        <_>
          <internalNodes>
            0 -1 140 2.1787796868011355e-05</internalNodes>
          <leafValues>
            -5.3008544445037842e-01 7.5803011655807495e-02</leafValues></_>
        <_>
          <internalNodes>
            0 -1 150 4.8178099095821381e-03</internalNodes>
          <leafValues>
            -1.3422939181327820e-01 3.0986759066581726e-01</leafValues></_>
        <_>
          <internalNodes>
            0 -1 41 -2.2151574376039207e-04</internalNodes>
          <leafValues>
            -3.3640471100807190e-01 1.2360078841447830e-01</leafValues></_>
        <_>
          <internalNodes>
            0 -1 118 -1.5962922479957342e-03</internalNodes>
          <leafValues>
            -4.7112244367599487e-01 7.9374618828296661e-02</leafValues></_>
        <_>
          <internalNodes>
            0 -1 109 -3.1451284885406494e-03</internalNodes>
          <leafValues>
            -5.1528239250183105e-01 7.6417118310928345e-02</leafValues></_>
        <_>
          <internalNodes>
            0 -1 17 1.5066548949107528e-03</internalNodes>
          <leafValues>
            -4.3648716807365417e-01 7.9827338457107544e-02</leafValues></_>
        <_>
          <internalNodes>
            0 -1 6 -2.0793782547116280e-02</internalNodes>
          <leafValues>
            1.8758061528205872e-01 -2.0335778594017029e-01</leafValues></_>
        <_>
          <internalNodes>
            0 -1 23 3.5636406391859055e-04</internalNodes>
          <leafValues>
            9.8908312618732452e-02 -3.8255888223648071e-01</leafValues></_>
        <_>
          <internalNodes>
            0 -1 148 -2.7814337518066168e-03</internalNodes>
          <leafValues>
            -4.4362840056419373e-01 7.7003858983516693e-02</leafValues></_>
        <_>
          <internalNodes>
            0 -1 5 3.3430683612823486e-01</internalNodes>
          <leafValues>
            -1.1928366869688034e-01 2.9112511873245239e-01</leafValues></_>
        <_>
          <internalNodes>
            0 -1 87 7.5864233076572418e-04</internalNodes>
          <leafValues>
            9.3107119202613831e-02 -3.7363779544830322e-01</leafValues></_>
        <_>
          <internalNodes>
            0 -1 11 -1.5741394460201263e-01</internalNodes>
          <leafValues>
            4.1986003518104553e-01 -8.5893534123897552e-02</leafValues></_>
        <_>
          <internalNodes>
            0 -1 202 -5.4152088705450296e-04</internalNodes>
          <leafValues>
            1.0634091496467590e-01 -3.6361876130104065e-01</leafValues></_>
        <_>
          <internalNodes>
            0 -1 142 -1.7414625734090805e-02</internalNodes>
          <leafValues>
            -4.7613096237182617e-01 6.6544935107231140e-02</leafValues></_>
        <_>
          <internalNodes>
            0 -1 18 6.1833690851926804e-03</internalNodes>
          <leafValues>
            -2.9597574472427368e-01 1.0614746809005737e-01</leafValues></_>
        <_>
          <internalNodes>
            0 -1 188 -6.9128919858485460e-04</internalNodes>
          <leafValues>
            2.6697471737861633e-01 -1.2821972370147705e-01</leafValues></_>
        <_>
          <internalNodes>
            0 -1 233 3.5341070033609867e-03</internalNodes>
          <leafValues>
            7.0971310138702393e-02 -4.6521136164665222e-01</leafValues></_>
        <_>
          <internalNodes>
            0 -1 243 2.8973040753044188e-04</internalNodes>
          <leafValues>
            6.3219629228115082e-02 -4.4180169701576233e-01</leafValues></_>
        <_>
          <internalNodes>
            0 -1 243 -2.7888355543836951e-04</internalNodes>
          <leafValues>
            -4.7427842020988464e-01 6.9838009774684906e-02</leafValues></_>
        <_>
          <internalNodes>
            0 -1 114 -1.6119506908580661e-03</internalNodes>
          <leafValues>
            9.6867844462394714e-02 -3.1829243898391724e-01</leafValues></_>
        <_>
          <internalNodes>
            0 -1 174 -5.2225394174456596e-03</internalNodes>
          <leafValues>
            -5.7979822158813477e-01 5.0002329051494598e-02</leafValues></_>
        <_>
          <internalNodes>
            0 -1 94 -8.1424769014120102e-03</internalNodes>
          <leafValues>
            1.8805392086505890e-01 -1.4701279997825623e-01</leafValues></_>
        <_>
          <internalNodes>
            0 -1 50 2.3565567098557949e-03</internalNodes>
          <leafValues>
            6.1688255518674850e-02 -4.4708409905433655e-01</leafValues></_>
        <_>
          <internalNodes>
            0 -1 169 1.0817900765687227e-03</internalNodes>
          <leafValues>
            -1.0118655115365982e-01 3.0834758281707764e-01</leafValues></_></weakClassifiers></_></stages>
  <features>
    <_>
      <rects>
        <_>
          0 0 2 2 -1.</_>
        <_>
          0 0 1 1 2.</_>
        <_>
          1 1 1 1 2.</_></rects>
      <tilted>0</tilted></_>
    <_>
      <rects>
        <_>
          0 0 2 2 -1.</_>
        <_>
          0 1 2 1 2.</_></rects>
      <tilted>0</tilted></_>
    <_>
      <rects>
        <_>
          0 0 3 2 -1.</_>
        <_>
          0 1 3 1 2.</_></rects>
      <tilted>0</tilted></_>
    <_>
      <rects>
        <_>
          0 0 4 2 -1.</_>
        <_>
          0 1 4 1 2.</_></rects>
      <tilted>0</tilted></_>
    <_>
      <rects>
        <_>
          0 0 5 2 -1.</_>
        <_>
          0 1 5 1 2.</_></rects>
      <tilted>0</tilted></_>
    <_>
      <rects>
        <_>
          0 1 24 18 -1.</_>
        <_>
          8 1 8 18 3.</_></rects>
      <tilted>0</tilted></_>
    <_>
      <rects>
        <_>
          0 3 18 6 -1.</_>
        <_>
          0 5 18 2 3.</_></rects>
      <tilted>0</tilted></_>
    <_>
      <rects>
        <_>
          0 5 10 16 -1.</_>
        <_>
          5 5 5 16 2.</_></rects>
      <tilted>0</tilted></_>
    <_>
      <rects>
        <_>
          0 5 12 16 -1.</_>
        <_>
          6 5 6 16 2.</_></rects>
      <tilted>0</tilted></_>
    <_>
      <rects>
        <_>
          0 5 16 6 -1.</_>
        <_>
          0 5 8 3 2.</_>
        <_>
          8 8 8 3 2.</_></rects>
      <tilted>0</tilted></_>
    <_>
      <rects>
        <_>
          0 6 10 13 -1.</_>
        <_>
          5 6 5 13 2.</_></rects>
      <tilted>0</tilted></_>
    <_>
      <rects>
        <_>
          0 6 18 17 -1.</_>
        <_>
          6 6 6 17 3.</_></rects>
      <tilted>0</tilted></_>
    <_>
      <rects>
        <_>
          1 0 2 2 -1.</_>
        <_>
          1 1 2 1 2.</_></rects>
      <tilted>0</tilted></_>
    <_>
      <rects>
        <_>
          1 0 3 2 -1.</_>
        <_>
          1 1 3 1 2.</_></rects>
      <tilted>0</tilted></_>
    <_>
      <rects>
        <_>
          1 0 5 2 -1.</_>
        <_>
          1 1 5 1 2.</_></rects>
      <tilted>0</tilted></_>
    <_>
      <rects>
        <_>
          1 5 14 6 -1.</_>
        <_>
          1 5 7 3 2.</_>
        <_>
          8 8 7 3 2.</_></rects>
      <tilted>0</tilted></_>
    <_>
      <rects>
        <_>
          1 7 9 12 -1.</_>
        <_>
          4 7 3 12 3.</_></rects>
      <tilted>0</tilted></_>
    <_>
      <rects>
        <_>
          1 12 12 2 -1.</_>
        <_>
          1 12 6 1 2.</_>
        <_>
          7 13 6 1 2.</_></rects>
      <tilted>0</tilted></_>
    <_>
      <rects>
        <_>
          1 12 23 3 -1.</_>
        <_>
          1 13 23 1 3.</_></rects>
      <tilted>0</tilted></_>
    <_>
      <rects>
        <_>
          2 7 5 6 -1.</_>
        <_>
          2 9 5 2 3.</_></rects>
      <tilted>0</tilted></_>
    <_>
      <rects>
        <_>
          2 7 15 17 -1.</_>
        <_>
          7 7 5 17 3.</_></rects>
      <tilted>0</tilted></_>
    <_>
      <rects>
        <_>
          2 9 20 4 -1.</_>
        <_>
          2 9 10 2 2.</_>
        <_>
          12 11 10 2 2.</_></rects>
      <tilted>0</tilted></_>
    <_>
      <rects>
        <_>
          2 12 19 2 -1.</_>
        <_>
          2 13 19 1 2.</_></rects>
      <tilted>0</tilted></_>
    <_>
      <rects>
        <_>
          3 0 4 2 -1.</_>
        <_>
          3 0 2 1 2.</_>
        <_>
          5 1 2 1 2.</_></rects>
      <tilted>0</tilted></_>
    <_>
      <rects>
        <_>
          3 0 4 2 -1.</_>
        <_>
          3 1 4 1 2.</_></rects>
      <tilted>0</tilted></_>
    <_>
      <rects>
        <_>
          3 0 5 2 -1.</_>
        <_>
          3 1 5 1 2.</_></rects>
      <tilted>0</tilted></_>
    <_>
      <rects>
        <_>
          3 3 10 8 -1.</_>
        <_>
          3 3 5 4 2.</_>
        <_>
          8 7 5 4 2.</_></rects>
      <tilted>0</tilted></_>
    <_>
      <rects>
        <_>
          3 7 6 10 -1.</_>
        <_>
          6 7 3 10 2.</_></rects>
      <tilted>0</tilted></_>
    <_>
      <rects>
        <_>
          3 7 12 11 -1.</_>
        <_>
          7 7 4 11 3.</_></rects>
      <tilted>0</tilted></_>
    <_>
      <rects>
        <_>
          3 7 18 13 -1.</_>
        <_>
          9 7 6 13 3.</_></rects>
      <tilted>0</tilted></_>
    <_>
      <rects>
        <_>
          3 8 9 9 -1.</_>
        <_>
          6 8 3 9 3.</_></rects>
      <tilted>0</tilted></_>
    <_>
      <rects>
        <_>
          4 0 19 2 -1.</_>
        <_>
          4 1 19 1 2.</_></rects>
      <tilted>0</tilted></_>
    <_>
      <rects>
        <_>
          4 3 8 8 -1.</_>
        <_>
          4 3 4 4 2.</_>
        <_>
          8 7 4 4 2.</_></rects>
      <tilted>0</tilted></_>
    <_>
      <rects>
        <_>
          4 7 6 12 -1.</_>
        <_>
          7 7 3 12 2.</_></rects>
      <tilted>0</tilted></_>
    <_>
      <rects>
        <_>
          4 11 3 3 -1.</_>
        <_>
          4 12 3 1 3.</_></rects>
      <tilted>0</tilted></_>
    <_>
      <rects>
        <_>
          4 12 12 2 -1.</_>
        <_>
          4 12 6 1 2.</_>
        <_>
          10 13 6 1 2.</_></rects>
      <tilted>0</tilted></_>
    <_>
      <rects>
        <_>
          4 12 10 2 -1.</_>
        <_>
          4 13 10 1 2.</_></rects>
      <tilted>0</tilted></_>
    <_>
      <rects>
        <_>
          4 13 16 2 -1.</_>
        <_>
          4 13 8 1 2.</_>
        <_>
          12 14 8 1 2.</_></rects>
      <tilted>0</tilted></_>
    <_>
      <rects>
        <_>
          5 7 15 13 -1.</_>
        <_>
          10 7 5 13 3.</_></rects>
      <tilted>0</tilted></_>
    <_>
      <rects>
        <_>
          5 7 11 6 -1.</_>
        <_>
          5 9 11 2 3.</_></rects>
      <tilted>0</tilted></_>
    <_>
      <rects>
        <_>
          5 11 3 6 -1.</_>
        <_>
          5 13 3 2 3.</_></rects>
      <tilted>0</tilted></_>
    <_>
      <rects>
        <_>
          6 0 2 2 -1.</_>
        <_>
          6 1 2 1 2.</_></rects>
      <tilted>0</tilted></_>
    <_>
      <rects>
        <_>
          6 0 12 8 -1.</_>
        <_>
          6 4 12 4 2.</_></rects>
      <tilted>0</tilted></_>
    <_>
      <rects>
        <_>
          6 3 17 6 -1.</_>
        <_>
          6 5 17 2 3.</_></rects>
      <tilted>0</tilted></_>
    <_>
      <rects>
        <_>
          6 6 18 13 -1.</_>
        <_>
          12 6 6 13 3.</_></rects>
      <tilted>0</tilted></_>
    <_>
      <rects>
        <_>
          6 11 10 6 -1.</_>
        <_>
          6 11 5 3 2.</_>
        <_>
          11 14 5 3 2.</_></rects>
      <tilted>0</tilted></_>
    <_>
      <rects>
        <_>
          6 12 2 3 -1.</_>
        <_>
          6 13 2 1 3.</_></rects>
      <tilted>0</tilted></_>
    <_>
      <rects>
        <_>
          6 12 4 2 -1.</_>
        <_>
          6 12 2 1 2.</_>
        <_>
          8 13 2 1 2.</_></rects>
      <tilted>0</tilted></_>
    <_>
      <rects>
        <_>
          6 12 12 4 -1.</_>
        <_>
          6 12 6 2 2.</_>
        <_>
          12 14 6 2 2.</_></rects>
      <tilted>0</tilted></_>
    <_>
      <rects>
        <_>
          6 13 12 2 -1.</_>
        <_>
          6 13 6 1 2.</_>
        <_>
          12 14 6 1 2.</_></rects>
      <tilted>0</tilted></_>
    <_>
      <rects>
        <_>
          6 15 4 3 -1.</_>
        <_>
          6 16 4 1 3.</_></rects>
      <tilted>0</tilted></_>
    <_>
      <rects>
        <_>
          6 15 12 2 -1.</_>
        <_>
          6 15 6 1 2.</_>
        <_>
          12 16 6 1 2.</_></rects>
      <tilted>0</tilted></_>
    <_>
      <rects>
        <_>
          6 17 8 2 -1.</_>
        <_>
          6 17 4 1 2.</_>
        <_>
          10 18 4 1 2.</_></rects>
      <tilted>0</tilted></_>
    <_>
      <rects>
        <_>
          6 18 12 2 -1.</_>
        <_>
          10 18 4 2 3.</_></rects>
      <tilted>0</tilted></_>
    <_>
      <rects>
        <_>
          7 0 10 8 -1.</_>
        <_>
          7 4 10 4 2.</_></rects>
      <tilted>0</tilted></_>
    <_>
      <rects>
        <_>
          7 3 8 6 -1.</_>
        <_>
          7 5 8 2 3.</_></rects>
      <tilted>0</tilted></_>
    <_>
      <rects>
        <_>
          7 8 4 6 -1.</_>
        <_>
          7 8 2 3 2.</_>
        <_>
          9 11 2 3 2.</_></rects>
      <tilted>0</tilted></_>
    <_>
      <rects>
        <_>
          7 9 4 4 -1.</_>
        <_>
          7 9 2 2 2.</_>
        <_>
          9 11 2 2 2.</_></rects>
      <tilted>0</tilted></_>
    <_>
      <rects>
        <_>
          7 9 4 3 -1.</_>
        <_>
          7 10 4 1 3.</_></rects>
      <tilted>0</tilted></_>
    <_>
      <rects>
        <_>
          7 9 9 3 -1.</_>
        <_>
          7 10 9 1 3.</_></rects>
      <tilted>0</tilted></_>
    <_>
      <rects>
        <_>
          7 11 4 6 -1.</_>
        <_>
          7 13 4 2 3.</_></rects>
      <tilted>0</tilted></_>
    <_>
      <rects>
        <_>
          7 12 2 4 -1.</_>
        <_>
          7 12 1 2 2.</_>
        <_>
          8 14 1 2 2.</_></rects>
      <tilted>0</tilted></_>
    <_>
      <rects>
        <_>
          7 12 3 3 -1.</_>
        <_>
          7 13 3 1 3.</_></rects>
      <tilted>0</tilted></_>
    <_>
      <rects>
        <_>
          7 12 6 4 -1.</_>
        <_>
          7 12 3 2 2.</_>
        <_>
          10 14 3 2 2.</_></rects>
      <tilted>0</tilted></_>
    <_>
      <rects>
        <_>
          7 12 9 2 -1.</_>
        <_>
          7 13 9 1 2.</_></rects>
      <tilted>0</tilted></_>
    <_>
      <rects>
        <_>
          7 13 2 2 -1.</_>
        <_>
          7 13 1 1 2.</_>
        <_>
          8 14 1 1 2.</_></rects>
      <tilted>0</tilted></_>
    <_>
      <rects>
        <_>
          7 14 2 3 -1.</_>
        <_>
          7 15 2 1 3.</_></rects>
      <tilted>0</tilted></_>
    <_>
      <rects>
        <_>
          7 14 3 2 -1.</_>
        <_>
          7 15 3 1 2.</_></rects>
      <tilted>0</tilted></_>
    <_>
      <rects>
        <_>
          7 16 3 3 -1.</_>
        <_>
          7 17 3 1 3.</_></rects>
      <tilted>0</tilted></_>
    <_>
      <rects>
        <_>
          7 18 4 1 -1.</_>
        <_>
          9 18 2 1 2.</_></rects>
      <tilted>0</tilted></_>
    <_>
      <rects>
        <_>
          8 7 15 14 -1.</_>
        <_>
          13 7 5 14 3.</_></rects>
      <tilted>0</tilted></_>
    <_>
      <rects>
        <_>
          8 7 8 6 -1.</_>
        <_>
          8 9 8 2 3.</_></rects>
      <tilted>0</tilted></_>
    <_>
      <rects>
        <_>
          8 8 2 6 -1.</_>
        <_>
          8 8 1 3 2.</_>
        <_>
          9 11 1 3 2.</_></rects>
      <tilted>0</tilted></_>
    <_>
      <rects>
        <_>
          8 10 5 6 -1.</_>
        <_>
          8 13 5 3 2.</_></rects>
      <tilted>0</tilted></_>
    <_>
      <rects>
        <_>
          8 11 1 3 -1.</_>
        <_>
          8 12 1 1 3.</_></rects>
      <tilted>0</tilted></_>
    <_>
      <rects>
        <_>
          8 11 1 4 -1.</_>
        <_>
          8 13 1 2 2.</_></rects>
      <tilted>0</tilted></_>
    <_>
      <rects>
        <_>
          8 11 4 3 -1.</_>
        <_>
          8 12 4 1 3.</_></rects>
      <tilted>0</tilted></_>
    <_>
      <rects>
        <_>
          8 11 6 6 -1.</_>
        <_>
          8 14 6 3 2.</_></rects>
      <tilted>0</tilted></_>
    <_>
      <rects>
        <_>
          8 11 8 3 -1.</_>
        <_>
          8 12 8 1 3.</_></rects>
      <tilted>0</tilted></_>
    <_>
      <rects>
        <_>
          8 12 2 2 -1.</_>
        <_>
          8 13 2 1 2.</_></rects>
      <tilted>0</tilted></_>
    <_>
      <rects>
        <_>
          8 12 4 2 -1.</_>
        <_>
          10 12 2 2 2.</_></rects>
      <tilted>0</tilted></_>
    <_>
      <rects>
        <_>
          8 12 4 4 -1.</_>
        <_>
          8 12 2 2 2.</_>
        <_>
          10 14 2 2 2.</_></rects>
      <tilted>0</tilted></_>
    <_>
      <rects>
        <_>
          8 12 6 4 -1.</_>
        <_>
          8 12 3 2 2.</_>
        <_>
          11 14 3 2 2.</_></rects>
      <tilted>0</tilted></_>
    <_>
      <rects>
        <_>
          8 12 5 2 -1.</_>
        <_>
          8 13 5 1 2.</_></rects>
      <tilted>0</tilted></_>
    <_>
      <rects>
        <_>
          8 12 6 2 -1.</_>
        <_>
          8 13 6 1 2.</_></rects>
      <tilted>0</tilted></_>
    <_>
      <rects>
        <_>
          8 12 12 2 -1.</_>
        <_>
          8 12 6 1 2.</_>
        <_>
          14 13 6 1 2.</_></rects>
      <tilted>0</tilted></_>
    <_>
      <rects>
        <_>
          8 12 8 2 -1.</_>
        <_>
          8 13 8 1 2.</_></rects>
      <tilted>0</tilted></_>
    <_>
      <rects>
        <_>
          8 13 2 1 -1.</_>
        <_>
          9 13 1 1 2.</_></rects>
      <tilted>0</tilted></_>
    <_>
      <rects>
        <_>
          8 13 8 2 -1.</_>
        <_>
          8 13 4 1 2.</_>
        <_>
          12 14 4 1 2.</_></rects>
      <tilted>0</tilted></_>
    <_>
      <rects>
        <_>
          8 14 2 2 -1.</_>
        <_>
          8 15 2 1 2.</_></rects>
      <tilted>0</tilted></_>
    <_>
      <rects>
        <_>
          8 15 3 2 -1.</_>
        <_>
          8 16 3 1 2.</_></rects>
      <tilted>0</tilted></_>
    <_>
      <rects>
        <_>
          8 16 4 4 -1.</_>
        <_>
          8 16 2 2 2.</_>
        <_>
          10 18 2 2 2.</_></rects>
      <tilted>0</tilted></_>
    <_>
      <rects>
        <_>
          8 16 8 2 -1.</_>
        <_>
          8 16 4 1 2.</_>
        <_>
          12 17 4 1 2.</_></rects>
      <tilted>0</tilted></_>
    <_>
      <rects>
        <_>
          8 17 4 2 -1.</_>
        <_>
          8 17 2 1 2.</_>
        <_>
          10 18 2 1 2.</_></rects>
      <tilted>0</tilted></_>
    <_>
      <rects>
        <_>
          8 17 7 6 -1.</_>
        <_>
          8 19 7 2 3.</_></rects>
      <tilted>0</tilted></_>
    <_>
      <rects>
        <_>
          8 18 9 2 -1.</_>
        <_>
          11 18 3 2 3.</_></rects>
      <tilted>0</tilted></_>
    <_>
      <rects>
        <_>
          9 1 6 9 -1.</_>
        <_>
          9 4 6 3 3.</_></rects>
      <tilted>0</tilted></_>
    <_>
      <rects>
        <_>
          9 5 6 6 -1.</_>
        <_>
          9 8 6 3 2.</_></rects>
      <tilted>0</tilted></_>
    <_>
      <rects>
        <_>
          9 5 6 9 -1.</_>
        <_>
          9 8 6 3 3.</_></rects>
      <tilted>0</tilted></_>
    <_>
      <rects>
        <_>
          9 5 14 6 -1.</_>
        <_>
          9 5 7 3 2.</_>
        <_>
          16 8 7 3 2.</_></rects>
      <tilted>0</tilted></_>
    <_>
      <rects>
        <_>
          9 8 3 3 -1.</_>
        <_>
          10 8 1 3 3.</_></rects>
      <tilted>0</tilted></_>
    <_>
      <rects>
        <_>
          9 9 3 3 -1.</_>
        <_>
          9 10 3 1 3.</_></rects>
      <tilted>0</tilted></_>
    <_>
      <rects>
        <_>
          9 9 6 3 -1.</_>
        <_>
          9 10 6 1 3.</_></rects>
      <tilted>0</tilted></_>
    <_>
      <rects>
        <_>
          9 10 6 3 -1.</_>
        <_>
          11 10 2 3 3.</_></rects>
      <tilted>0</tilted></_>
    <_>
      <rects>
        <_>
          9 11 1 4 -1.</_>
        <_>
          9 13 1 2 2.</_></rects>
      <tilted>0</tilted></_>
    <_>
      <rects>
        <_>
          9 11 1 6 -1.</_>
        <_>
          9 13 1 2 3.</_></rects>
      <tilted>0</tilted></_>
    <_>
      <rects>
        <_>
          9 11 3 4 -1.</_>
        <_>
          10 11 1 4 3.</_></rects>
      <tilted>0</tilted></_>
    <_>
      <rects>
        <_>
          9 11 4 2 -1.</_>
        <_>
          11 11 2 2 2.</_></rects>
      <tilted>0</tilted></_>
    <_>
      <rects>
        <_>
          9 11 6 2 -1.</_>
        <_>
          11 11 2 2 3.</_></rects>
      <tilted>0</tilted></_>
    <_>
      <rects>
        <_>
          9 11 6 2 -1.</_>
        <_>
          9 11 3 1 2.</_>
        <_>
          12 12 3 1 2.</_></rects>
      <tilted>0</tilted></_>
    <_>
      <rects>
        <_>
          9 11 5 8 -1.</_>
        <_>
          9 15 5 4 2.</_></rects>
      <tilted>0</tilted></_>
    <_>
      <rects>
        <_>
          9 12 1 4 -1.</_>
        <_>
          9 14 1 2 2.</_></rects>
      <tilted>0</tilted></_>
    <_>
      <rects>
        <_>
          9 12 4 1 -1.</_>
        <_>
          11 12 2 1 2.</_></rects>
      <tilted>0</tilted></_>
    <_>
      <rects>
        <_>
          9 12 4 2 -1.</_>
        <_>
          9 12 2 1 2.</_>
        <_>
          11 13 2 1 2.</_></rects>
      <tilted>0</tilted></_>
    <_>
      <rects>
        <_>
          9 12 4 4 -1.</_>
        <_>
          9 12 2 2 2.</_>
        <_>
          11 14 2 2 2.</_></rects>
      <tilted>0</tilted></_>
    <_>
      <rects>
        <_>
          9 12 3 2 -1.</_>
        <_>
          9 13 3 1 2.</_></rects>
      <tilted>0</tilted></_>
    <_>
      <rects>
        <_>
          9 12 4 2 -1.</_>
        <_>
          9 13 4 1 2.</_></rects>
      <tilted>0</tilted></_>
    <_>
      <rects>
        <_>
          9 12 8 4 -1.</_>
        <_>
          9 12 4 2 2.</_>
        <_>
          13 14 4 2 2.</_></rects>
      <tilted>0</tilted></_>
    <_>
      <rects>
        <_>
          9 13 6 2 -1.</_>
        <_>
          9 13 3 1 2.</_>
        <_>
          12 14 3 1 2.</_></rects>
      <tilted>0</tilted></_>
    <_>
      <rects>
        <_>
          9 13 3 6 -1.</_>
        <_>
          9 15 3 2 3.</_></rects>
      <tilted>0</tilted></_>
    <_>
      <rects>
        <_>
          9 14 2 1 -1.</_>
        <_>
          10 14 1 1 2.</_></rects>
      <tilted>0</tilted></_>
    <_>
      <rects>
        <_>
          9 14 2 4 -1.</_>
        <_>
          9 16 2 2 2.</_></rects>
      <tilted>0</tilted></_>
    <_>
      <rects>
        <_>
          9 14 3 4 -1.</_>
        <_>
          9 16 3 2 2.</_></rects>
      <tilted>0</tilted></_>
    <_>
      <rects>
        <_>
          9 14 6 4 -1.</_>
        <_>
          9 16 6 2 2.</_></rects>
      <tilted>0</tilted></_>
    <_>
      <rects>
        <_>
          9 15 1 3 -1.</_>
        <_>
          9 16 1 1 3.</_></rects>
      <tilted>0</tilted></_>
    <_>
      <rects>
        <_>
          9 17 2 3 -1.</_>
        <_>
          9 18 2 1 3.</_></rects>
      <tilted>0</tilted></_>
    <_>
      <rects>
        <_>
          9 18 5 6 -1.</_>
        <_>
          9 20 5 2 3.</_></rects>
      <tilted>0</tilted></_>
    <_>
      <rects>
        <_>
          9 18 6 6 -1.</_>
        <_>
          9 20 6 2 3.</_></rects>
      <tilted>0</tilted></_>
    <_>
      <rects>
        <_>
          9 19 6 1 -1.</_>
        <_>
          11 19 2 1 3.</_></rects>
      <tilted>0</tilted></_>
    <_>
      <rects>
        <_>
          10 3 12 8 -1.</_>
        <_>
          10 3 6 4 2.</_>
        <_>
          16 7 6 4 2.</_></rects>
      <tilted>0</tilted></_>
    <_>
      <rects>
        <_>
          10 3 14 14 -1.</_>
        <_>
          17 3 7 14 2.</_></rects>
      <tilted>0</tilted></_>
    <_>
      <rects>
        <_>
          10 9 3 1 -1.</_>
        <_>
          11 9 1 1 3.</_></rects>
      <tilted>0</tilted></_>
    <_>
      <rects>
        <_>
          10 9 1 3 -1.</_>
        <_>
          10 10 1 1 3.</_></rects>
      <tilted>0</tilted></_>
    <_>
      <rects>
        <_>
          10 9 3 2 -1.</_>
        <_>
          11 9 1 2 3.</_></rects>
      <tilted>0</tilted></_>
    <_>
      <rects>
        <_>
          10 10 1 2 -1.</_>
        <_>
          10 11 1 1 2.</_></rects>
      <tilted>0</tilted></_>
    <_>
      <rects>
        <_>
          10 10 2 2 -1.</_>
        <_>
          10 10 1 1 2.</_>
        <_>
          11 11 1 1 2.</_></rects>
      <tilted>0</tilted></_>
    <_>
      <rects>
        <_>
          10 10 2 3 -1.</_>
        <_>
          11 10 1 3 2.</_></rects>
      <tilted>0</tilted></_>
    <_>
      <rects>
        <_>
          10 10 4 2 -1.</_>
        <_>
          10 11 4 1 2.</_></rects>
      <tilted>0</tilted></_>
    <_>
      <rects>
        <_>
          10 10 5 8 -1.</_>
        <_>
          10 14 5 4 2.</_></rects>
      <tilted>0</tilted></_>
    <_>
      <rects>
        <_>
          10 10 8 6 -1.</_>
        <_>
          10 13 8 3 2.</_></rects>
      <tilted>0</tilted></_>
    <_>
      <rects>
        <_>
          10 11 2 1 -1.</_>
        <_>
          11 11 1 1 2.</_></rects>
      <tilted>0</tilted></_>
    <_>
      <rects>
        <_>
          10 11 2 2 -1.</_>
        <_>
          11 11 1 2 2.</_></rects>
      <tilted>0</tilted></_>
    <_>
      <rects>
        <_>
          10 11 4 8 -1.</_>
        <_>
          10 15 4 4 2.</_></rects>
      <tilted>0</tilted></_>
    <_>
      <rects>
        <_>
          10 11 4 10 -1.</_>
        <_>
          10 16 4 5 2.</_></rects>
      <tilted>0</tilted></_>
    <_>
      <rects>
        <_>
          10 12 1 9 -1.</_>
        <_>
          10 15 1 3 3.</_></rects>
      <tilted>0</tilted></_>
    <_>
      <rects>
        <_>
          10 12 6 4 -1.</_>
        <_>
          10 12 3 2 2.</_>
        <_>
          13 14 3 2 2.</_></rects>
      <tilted>0</tilted></_>
    <_>
      <rects>
        <_>
          10 13 2 6 -1.</_>
        <_>
          10 15 2 2 3.</_></rects>
      <tilted>0</tilted></_>
    <_>
      <rects>
        <_>
          10 13 7 6 -1.</_>
        <_>
          10 15 7 2 3.</_></rects>
      <tilted>0</tilted></_>
    <_>
      <rects>
        <_>
          10 15 4 4 -1.</_>
        <_>
          10 15 2 2 2.</_>
        <_>
          12 17 2 2 2.</_></rects>
      <tilted>0</tilted></_>
    <_>
      <rects>
        <_>
          10 17 1 2 -1.</_>
        <_>
          10 18 1 1 2.</_></rects>
      <tilted>0</tilted></_>
    <_>
      <rects>
        <_>
          10 18 4 3 -1.</_>
        <_>
          10 19 4 1 3.</_></rects>
      <tilted>0</tilted></_>
    <_>
      <rects>
        <_>
          10 18 4 6 -1.</_>
        <_>
          10 20 4 2 3.</_></rects>
      <tilted>0</tilted></_>
    <_>
      <rects>
        <_>
          10 19 4 3 -1.</_>
        <_>
          10 20 4 1 3.</_></rects>
      <tilted>0</tilted></_>
    <_>
      <rects>
        <_>
          10 19 5 3 -1.</_>
        <_>
          10 20 5 1 3.</_></rects>
      <tilted>0</tilted></_>
    <_>
      <rects>
        <_>
          11 7 3 3 -1.</_>
        <_>
          12 7 1 3 3.</_></rects>
      <tilted>0</tilted></_>
    <_>
      <rects>
        <_>
          11 7 3 4 -1.</_>
        <_>
          12 7 1 4 3.</_></rects>
      <tilted>0</tilted></_>
    <_>
      <rects>
        <_>
          11 8 3 3 -1.</_>
        <_>
          12 8 1 3 3.</_></rects>
      <tilted>0</tilted></_>
    <_>
      <rects>
        <_>
          11 9 3 2 -1.</_>
        <_>
          12 9 1 2 3.</_></rects>
      <tilted>0</tilted></_>
    <_>
      <rects>
        <_>
          11 9 3 12 -1.</_>
        <_>
          11 15 3 6 2.</_></rects>
      <tilted>0</tilted></_>
    <_>
      <rects>
        <_>
          11 11 4 1 -1.</_>
        <_>
          13 11 2 1 2.</_></rects>
      <tilted>0</tilted></_>
    <_>
      <rects>
        <_>
          11 11 4 2 -1.</_>
        <_>
          13 11 2 2 2.</_></rects>
      <tilted>0</tilted></_>
    <_>
      <rects>
        <_>
          11 11 2 6 -1.</_>
        <_>
          11 14 2 3 2.</_></rects>
      <tilted>0</tilted></_>
    <_>
      <rects>
        <_>
          11 11 4 9 -1.</_>
        <_>
          11 14 4 3 3.</_></rects>
      <tilted>0</tilted></_>
    <_>
      <rects>
        <_>
          11 11 5 3 -1.</_>
        <_>
          11 12 5 1 3.</_></rects>
      <tilted>0</tilted></_>
    <_>
      <rects>
        <_>
          11 11 6 4 -1.</_>
        <_>
          11 13 6 2 2.</_></rects>
      <tilted>0</tilted></_>
    <_>
      <rects>
        <_>
          11 12 4 1 -1.</_>
        <_>
          13 12 2 1 2.</_></rects>
      <tilted>0</tilted></_>
    <_>
      <rects>
        <_>
          11 12 4 2 -1.</_>
        <_>
          11 12 2 1 2.</_>
        <_>
          13 13 2 1 2.</_></rects>
      <tilted>0</tilted></_>
    <_>
      <rects>
        <_>
          11 12 8 2 -1.</_>
        <_>
          11 13 8 1 2.</_></rects>
      <tilted>0</tilted></_>
    <_>
      <rects>
        <_>
          11 14 2 3 -1.</_>
        <_>
          11 15 2 1 3.</_></rects>
      <tilted>0</tilted></_>
    <_>
      <rects>
        <_>
          11 15 2 3 -1.</_>
        <_>
          11 16 2 1 3.</_></rects>
      <tilted>0</tilted></_>
    <_>
      <rects>
        <_>
          11 16 2 4 -1.</_>
        <_>
          11 16 1 2 2.</_>
        <_>
          12 18 1 2 2.</_></rects>
      <tilted>0</tilted></_>
    <_>
      <rects>
        <_>
          11 18 6 1 -1.</_>
        <_>
          13 18 2 1 3.</_></rects>
      <tilted>0</tilted></_>
    <_>
      <rects>
        <_>
          11 19 2 2 -1.</_>
        <_>
          11 20 2 1 2.</_></rects>
      <tilted>0</tilted></_>
    <_>
      <rects>
        <_>
          12 3 8 8 -1.</_>
        <_>
          12 3 4 4 2.</_>
        <_>
          16 7 4 4 2.</_></rects>
      <tilted>0</tilted></_>
    <_>
      <rects>
        <_>
          12 6 3 6 -1.</_>
        <_>
          13 6 1 6 3.</_></rects>
      <tilted>0</tilted></_>
    <_>
      <rects>
        <_>
          12 9 3 2 -1.</_>
        <_>
          13 9 1 2 3.</_></rects>
      <tilted>0</tilted></_>
    <_>
      <rects>
        <_>
          12 9 2 4 -1.</_>
        <_>
          13 9 1 4 2.</_></rects>
      <tilted>0</tilted></_>
    <_>
      <rects>
        <_>
          12 9 2 3 -1.</_>
        <_>
          12 10 2 1 3.</_></rects>
      <tilted>0</tilted></_>
    <_>
      <rects>
        <_>
          12 10 2 3 -1.</_>
        <_>
          13 10 1 3 2.</_></rects>
      <tilted>0</tilted></_>
    <_>
      <rects>
        <_>
          12 11 2 1 -1.</_>
        <_>
          13 11 1 1 2.</_></rects>
      <tilted>0</tilted></_>
    <_>
      <rects>
        <_>
          12 11 2 2 -1.</_>
        <_>
          13 11 1 2 2.</_></rects>
      <tilted>0</tilted></_>
    <_>
      <rects>
        <_>
          12 12 1 9 -1.</_>
        <_>
          12 15 1 3 3.</_></rects>
      <tilted>0</tilted></_>
    <_>
      <rects>
        <_>
          12 12 2 2 -1.</_>
        <_>
          12 13 2 1 2.</_></rects>
      <tilted>0</tilted></_>
    <_>
      <rects>
        <_>
          12 12 4 2 -1.</_>
        <_>
          14 12 2 2 2.</_></rects>
      <tilted>0</tilted></_>
    <_>
      <rects>
        <_>
          12 12 4 4 -1.</_>
        <_>
          12 12 2 2 2.</_>
        <_>
          14 14 2 2 2.</_></rects>
      <tilted>0</tilted></_>
    <_>
      <rects>
        <_>
          12 12 4 2 -1.</_>
        <_>
          12 13 4 1 2.</_></rects>
      <tilted>0</tilted></_>
    <_>
      <rects>
        <_>
          12 12 8 2 -1.</_>
        <_>
          12 12 4 1 2.</_>
        <_>
          16 13 4 1 2.</_></rects>
      <tilted>0</tilted></_>
    <_>
      <rects>
        <_>
          12 13 5 4 -1.</_>
        <_>
          12 15 5 2 2.</_></rects>
      <tilted>0</tilted></_>
    <_>
      <rects>
        <_>
          12 14 3 1 -1.</_>
        <_>
          13 14 1 1 3.</_></rects>
      <tilted>0</tilted></_>
    <_>
      <rects>
        <_>
          12 14 4 4 -1.</_>
        <_>
          12 16 4 2 2.</_></rects>
      <tilted>0</tilted></_>
    <_>
      <rects>
        <_>
          12 14 5 4 -1.</_>
        <_>
          12 16 5 2 2.</_></rects>
      <tilted>0</tilted></_>
    <_>
      <rects>
        <_>
          12 14 5 6 -1.</_>
        <_>
          12 16 5 2 3.</_></rects>
      <tilted>0</tilted></_>
    <_>
      <rects>
        <_>
          12 15 1 6 -1.</_>
        <_>
          12 18 1 3 2.</_></rects>
      <tilted>0</tilted></_>
    <_>
      <rects>
        <_>
          12 16 4 4 -1.</_>
        <_>
          12 16 2 2 2.</_>
        <_>
          14 18 2 2 2.</_></rects>
      <tilted>0</tilted></_>
    <_>
      <rects>
        <_>
          13 7 8 6 -1.</_>
        <_>
          13 9 8 2 3.</_></rects>
      <tilted>0</tilted></_>
    <_>
      <rects>
        <_>
          13 8 1 6 -1.</_>
        <_>
          13 11 1 3 2.</_></rects>
      <tilted>0</tilted></_>
    <_>
      <rects>
        <_>
          13 8 4 6 -1.</_>
        <_>
          13 8 2 3 2.</_>
        <_>
          15 11 2 3 2.</_></rects>
      <tilted>0</tilted></_>
    <_>
      <rects>
        <_>
          13 9 2 3 -1.</_>
        <_>
          13 10 2 1 3.</_></rects>
      <tilted>0</tilted></_>
    <_>
      <rects>
        <_>
          13 10 2 10 -1.</_>
        <_>
          13 10 1 5 2.</_>
        <_>
          14 15 1 5 2.</_></rects>
      <tilted>0</tilted></_>
    <_>
      <rects>
        <_>
          13 11 4 6 -1.</_>
        <_>
          13 13 4 2 3.</_></rects>
      <tilted>0</tilted></_>
    <_>
      <rects>
        <_>
          13 13 6 2 -1.</_>
        <_>
          15 13 2 2 3.</_></rects>
      <tilted>0</tilted></_>
    <_>
      <rects>
        <_>
          13 14 2 1 -1.</_>
        <_>
          14 14 1 1 2.</_></rects>
      <tilted>0</tilted></_>
    <_>
      <rects>
        <_>
          13 14 2 4 -1.</_>
        <_>
          13 16 2 2 2.</_></rects>
      <tilted>0</tilted></_>
    <_>
      <rects>
        <_>
          13 15 2 3 -1.</_>
        <_>
          13 16 2 1 3.</_></rects>
      <tilted>0</tilted></_>
    <_>
      <rects>
        <_>
          13 15 4 2 -1.</_>
        <_>
          13 16 4 1 2.</_></rects>
      <tilted>0</tilted></_>
    <_>
      <rects>
        <_>
          13 17 1 2 -1.</_>
        <_>
          13 18 1 1 2.</_></rects>
      <tilted>0</tilted></_>
    <_>
      <rects>
        <_>
          13 17 2 3 -1.</_>
        <_>
          13 18 2 1 3.</_></rects>
      <tilted>0</tilted></_>
    <_>
      <rects>
        <_>
          13 18 2 2 -1.</_>
        <_>
          14 18 1 2 2.</_></rects>
      <tilted>0</tilted></_>
    <_>
      <rects>
        <_>
          13 18 4 1 -1.</_>
        <_>
          15 18 2 1 2.</_></rects>
      <tilted>0</tilted></_>
    <_>
      <rects>
        <_>
          14 5 10 14 -1.</_>
        <_>
          19 5 5 14 2.</_></rects>
      <tilted>0</tilted></_>
    <_>
      <rects>
        <_>
          14 5 10 15 -1.</_>
        <_>
          19 5 5 15 2.</_></rects>
      <tilted>0</tilted></_>
    <_>
      <rects>
        <_>
          14 7 9 12 -1.</_>
        <_>
          17 7 3 12 3.</_></rects>
      <tilted>0</tilted></_>
    <_>
      <rects>
        <_>
          14 8 8 6 -1.</_>
        <_>
          14 10 8 2 3.</_></rects>
      <tilted>0</tilted></_>
    <_>
      <rects>
        <_>
          14 10 3 4 -1.</_>
        <_>
          14 12 3 2 2.</_></rects>
      <tilted>0</tilted></_>
    <_>
      <rects>
        <_>
          14 11 2 3 -1.</_>
        <_>
          14 12 2 1 3.</_></rects>
      <tilted>0</tilted></_>
    <_>
      <rects>
        <_>
          14 11 2 4 -1.</_>
        <_>
          14 13 2 2 2.</_></rects>
      <tilted>0</tilted></_>
    <_>
      <rects>
        <_>
          14 12 1 2 -1.</_>
        <_>
          14 13 1 1 2.</_></rects>
      <tilted>0</tilted></_>
    <_>
      <rects>
        <_>
          14 12 1 6 -1.</_>
        <_>
          14 14 1 2 3.</_></rects>
      <tilted>0</tilted></_>
    <_>
      <rects>
        <_>
          14 12 2 2 -1.</_>
        <_>
          14 13 2 1 2.</_></rects>
      <tilted>0</tilted></_>
    <_>
      <rects>
        <_>
          14 12 4 2 -1.</_>
        <_>
          14 12 2 1 2.</_>
        <_>
          16 13 2 1 2.</_></rects>
      <tilted>0</tilted></_>
    <_>
      <rects>
        <_>
          14 12 3 3 -1.</_>
        <_>
          14 13 3 1 3.</_></rects>
      <tilted>0</tilted></_>
    <_>
      <rects>
        <_>
          14 14 2 2 -1.</_>
        <_>
          14 15 2 1 2.</_></rects>
      <tilted>0</tilted></_>
    <_>
      <rects>
        <_>
          14 16 2 3 -1.</_>
        <_>
          14 17 2 1 3.</_></rects>
      <tilted>0</tilted></_>
    <_>
      <rects>
        <_>
          15 7 6 11 -1.</_>
        <_>
          18 7 3 11 2.</_></rects>
      <tilted>0</tilted></_>
    <_>
      <rects>
        <_>
          15 7 8 11 -1.</_>
        <_>
          19 7 4 11 2.</_></rects>
      <tilted>0</tilted></_>
    <_>
      <rects>
        <_>
          15 8 1 6 -1.</_>
        <_>
          15 10 1 2 3.</_></rects>
      <tilted>0</tilted></_>
    <_>
      <rects>
        <_>
          15 8 4 10 -1.</_>
        <_>
          17 8 2 10 2.</_></rects>
      <tilted>0</tilted></_>
    <_>
      <rects>
        <_>
          15 12 1 2 -1.</_>
        <_>
          15 13 1 1 2.</_></rects>
      <tilted>0</tilted></_>
    <_>
      <rects>
        <_>
          15 12 2 4 -1.</_>
        <_>
          15 12 1 2 2.</_>
        <_>
          16 14 1 2 2.</_></rects>
      <tilted>0</tilted></_>
    <_>
      <rects>
        <_>
          15 14 2 3 -1.</_>
        <_>
          15 15 2 1 3.</_></rects>
      <tilted>0</tilted></_>
    <_>
      <rects>
        <_>
          16 0 6 2 -1.</_>
        <_>
          16 1 6 1 2.</_></rects>
      <tilted>0</tilted></_>
    <_>
      <rects>
        <_>
          16 0 7 2 -1.</_>
        <_>
          16 1 7 1 2.</_></rects>
      <tilted>0</tilted></_>
    <_>
      <rects>
        <_>
          16 12 2 3 -1.</_>
        <_>
          16 13 2 1 3.</_></rects>
      <tilted>0</tilted></_>
    <_>
      <rects>
        <_>
          17 9 5 3 -1.</_>
        <_>
          17 10 5 1 3.</_></rects>
      <tilted>0</tilted></_>
    <_>
      <rects>
        <_>
          17 11 3 3 -1.</_>
        <_>
          17 12 3 1 3.</_></rects>
      <tilted>0</tilted></_>
    <_>
      <rects>
        <_>
          17 13 2 3 -1.</_>
        <_>
          17 14 2 1 3.</_></rects>
      <tilted>0</tilted></_>
    <_>
      <rects>
        <_>
          18 0 6 2 -1.</_>
        <_>
          18 0 3 1 2.</_>
        <_>
          21 1 3 1 2.</_></rects>
      <tilted>0</tilted></_>
    <_>
      <rects>
        <_>
          19 0 4 2 -1.</_>
        <_>
          19 0 2 1 2.</_>
        <_>
          21 1 2 1 2.</_></rects>
      <tilted>0</tilted></_>
    <_>
      <rects>
        <_>
          20 0 2 2 -1.</_>
        <_>
          20 1 2 1 2.</_></rects>
      <tilted>0</tilted></_>
    <_>
      <rects>
        <_>
          20 0 4 2 -1.</_>
        <_>
          20 0 2 1 2.</_>
        <_>
          22 1 2 1 2.</_></rects>
      <tilted>0</tilted></_>
    <_>
      <rects>
        <_>
          20 0 4 2 -1.</_>
        <_>
          20 1 4 1 2.</_></rects>
      <tilted>0</tilted></_>
    <_>
      <rects>
        <_>
          21 0 2 2 -1.</_>
        <_>
          21 1 2 1 2.</_></rects>
      <tilted>0</tilted></_>
    <_>
      <rects>
        <_>
          21 0 3 2 -1.</_>
        <_>
          21 1 3 1 2.</_></rects>
      <tilted>0</tilted></_>
    <_>
      <rects>
        <_>
          22 0 2 2 -1.</_>
        <_>
          22 0 1 1 2.</_>
        <_>
          23 1 1 1 2.</_></rects>
      <tilted>0</tilted></_>
    <_>
      <rects>
        <_>
          22 0 2 2 -1.</_>
        <_>
          22 1 2 1 2.</_></rects>
      <tilted>0</tilted></_></features></cascade>
</opencv_storage>
